{"learner":{"attributes":{"scikit_learn":"{\"_estimator_type\": \"regressor\"}"},"feature_names":[],"feature_types":[],"gradient_booster":{"model":{"gbtree_model_param":{"num_parallel_tree":"1","num_trees":"200"},"iteration_indptr":[0,1,2,3,4,5,6,7,8,9,10,11,12,13,14,15,16,17,18,19,20,21,22,23,24,25,26,27,28,29,30,31,32,33,34,35,36,37,38,39,40,41,42,43,44,45,46,47,48,49,50,51,52,53,54,55,56,57,58,59,60,61,62,63,64,65,66,67,68,69,70,71,72,73,74,75,76,77,78,79,80,81,82,83,84,85,86,87,88,89,90,91,92,93,94,95,96,97,98,99,100,101,102,103,104,105,106,107,108,109,110,111,112,113,114,115,116,117,118,119,120,121,122,123,124,125,126,127,128,129,130,131,132,133,134,135,136,137,138,139,140,141,142,143,144,145,146,147,148,149,150,151,152,153,154,155,156,157,158,159,160,161,162,163,164,165,166,167,168,169,170,171,172,173,174,175,176,177,178,179,180,181,182,183,184,185,186,187,188,189,190,191,192,193,194,195,196,197,198,199,200],"tree_info":[0,0,0,0,0,0,0,0,0,0,0,0,0,0,0,0,0,0,0,0,0,0,0,0,0,0,0,0,0,0,0,0,0,0,0,0,0,0,0,0,0,0,0,0,0,0,0,0,0,0,0,0,0,0,0,0,0,0,0,0,0,0,0,0,0,0,0,0,0,0,0,0,0,0,0,0,0,0,0,0,0,0,0,0,0,0,0,0,0,0,0,0,0,0,0,0,0,0,0,0,0,0,0,0,0,0,0,0,0,0,0,0,0,0,0,0,0,0,0,0,0,0,0,0,0,0,0,0,0,0,0,0,0,0,0,0,0,0,0,0,0,0,0,0,0,0,0,0,0,0,0,0,0,0,0,0,0,0,0,0,0,0,0,0,0,0,0,0,0,0,0,0,0,0,0,0,0,0,0,0,0,0,0,0,0,0,0,0,0,0,0,0,0,0,0,0,0,0,0,0],"trees":[{"base_weights":[1.03899204E-7,-8.587693E-1,1.2409564E0,-1.4490477E0,-2.8259113E-1,8.2764435E-1,1.6020775E0,-8.6956754E-2,-6.2144686E-2,-2.3853337E-2,3.028357E-3,2.7269328E-2,4.82659E-2,8.2470864E-2,3.236764E-2],"categories":[],"categories_nodes":[],"categories_segments":[],"categories_sizes":[],"default_left":[0,0,0,0,0,0,0,0,0,0,0,0,0,0,0],"id":0,"left_children":[1,3,5,7,9,11,13,-1,-1,-1,-1,-1,-1,-1,-1],"loss_changes":[9.719141E2,1.8290735E2,5.4346436E1,1.3745972E1,1.8314537E1,6.3127823E0,7.881195E0,0E0,0E0,0E0,0E0,0E0,0E0,0E0,0E0],"parents":[2147483647,0,0,1,1,2,2,3,3,4,4,5,5,6,6],"right_children":[2,4,6,8,10,12,14,-1,-1,-1,-1,-1,-1,-1,-1],"split_conditions":[5.1E0,2.3E0,7E0,1.4E0,3.9E0,6E0,1.13E1,-8.6956754E-2,-6.2144686E-2,-2.3853337E-2,3.028357E-3,2.7269328E-2,4.82659E-2,8.2470864E-2,3.236764E-2],"split_indices":[0,0,0,0,0,0,0,0,0,0,0,0,0,0,0],"split_type":[0,0,0,0,0,0,0,0,0,0,0,0,0,0,0],"sum_hessian":[9.1E2,5.38E2,3.72E2,2.65E2,2.73E2,1.75E2,1.97E2,1.07E2,1.58E2,1.74E2,9.9E1,5.9E1,1.16E2,1.87E2,1E1],"tree_param":{"num_deleted":"0","num_feature":"1","num_nodes":"15","size_leaf_vector":"1"}},{"base_weights":[2.253121E-5,-8.161461E-1,1.1794189E0,-1.3771558E0,-2.685376E-1,7.8669125E-1,1.5225536E0,-8.264917E-2,-5.9056986E-2,-2.2667488E-2,2.8784515E-3,2.5928585E-2,4.5873232E-2,7.810733E-2,2.587646E-2],"categories":[],"categories_nodes":[],"categories_segments":[],"categories_sizes":[],"default_left":[0,0,0,0,0,0,0,0,0,0,0,0,0,0,0],"id":1,"left_children":[1,3,5,7,9,11,13,-1,-1,-1,-1,-1,-1,-1,-1],"loss_changes":[8.778787E2,1.6521832E2,4.906714E1,1.2429321E1,1.6539661E1,5.6952972E0,7.070343E0,0E0,0E0,0E0,0E0,0E0,0E0,0E0,0E0],"parents":[2147483647,0,0,1,1,2,2,3,3,4,4,5,5,6,6],"right_children":[2,4,6,8,10,12,14,-1,-1,-1,-1,-1,-1,-1,-1],"split_conditions":[5.1E0,2.3E0,7E0,1.4E0,3.9E0,6E0,1.18E1,-8.264917E-2,-5.9056986E-2,-2.2667488E-2,2.8784515E-3,2.5928585E-2,4.5873232E-2,7.810733E-2,2.587646E-2],"split_indices":[0,0,0,0,0,0,0,0,0,0,0,0,0,0,0],"split_type":[0,0,0,0,0,0,0,0,0,0,0,0,0,0,0],"sum_hessian":[9.1E2,5.38E2,3.72E2,2.65E2,2.73E2,1.75E2,1.97E2,1.07E2,1.58E2,1.74E2,9.9E1,5.9E1,1.16E2,1.89E2,8E0],"tree_param":{"num_deleted":"0","num_feature":"1","num_nodes":"15","size_leaf_vector":"1"}},{"base_weights":[3.7094764E-5,-7.756384E-1,1.1209193E0,-1.3088306E0,-2.55183E-1,8.038328E-1,1.5072426E0,-7.855498E-2,-5.612271E-2,-2.1540595E-2,2.7359694E-3,3.152954E-2,5.2500088E-2,7.811322E-2,2.9245347E-2],"categories":[],"categories_nodes":[],"categories_segments":[],"categories_sizes":[],"default_left":[0,0,0,0,0,0,0,0,0,0,0,0,0,0,0],"id":2,"left_children":[1,3,5,7,9,11,13,-1,-1,-1,-1,-1,-1,-1,-1],"loss_changes":[7.9293005E2,1.4924002E2,4.4480164E1,1.123877E1,1.4936792E1,8.1657715E0,7.561249E0,0E0,0E0,0E0,0E0,0E0,0E0,0E0,0E0],"parents":[2147483647,0,0,1,1,2,2,3,3,4,4,5,5,6,6],"right_children":[2,4,6,8,10,12,14,-1,-1,-1,-1,-1,-1,-1,-1],"split_conditions":[5.1E0,2.3E0,7.2E0,1.4E0,3.9E0,6.4E0,1.13E1,-7.855498E-2,-5.612271E-2,-2.1540595E-2,2.7359694E-3,3.152954E-2,5.2500088E-2,7.811322E-2,2.9245347E-2],"split_indices":[0,0,0,0,0,0,0,0,0,0,0,0,0,0,0],"split_type":[0,0,0,0,0,0,0,0,0,0,0,0,0,0,0],"sum_hessian":[9.1E2,5.38E2,3.72E2,2.65E2,2.73E2,2.06E2,1.66E2,1.07E2,1.58E2,1.74E2,9.9E1,1.23E2,8.3E1,1.56E2,1E1],"tree_param":{"num_deleted":"0","num_feature":"1","num_nodes":"15","size_leaf_vector":"1"}},{"base_weights":[7.689444E-5,-7.371412E-1,1.0653864E0,-1.2438954E0,-2.4249241E-1,7.640472E-1,1.4325231E0,-7.4663594E-2,-5.3334218E-2,-2.0469716E-2,2.6005446E-3,2.9965779E-2,4.990634E-2,7.423244E-2,2.7916012E-2],"categories":[],"categories_nodes":[],"categories_segments":[],"categories_sizes":[],"default_left":[0,0,0,0,0,0,0,0,0,0,0,0,0,0,0],"id":3,"left_children":[1,3,5,7,9,11,13,-1,-1,-1,-1,-1,-1,-1,-1],"loss_changes":[7.162533E2,1.3480698E2,4.017148E1,1.01622925E1,1.3489262E1,7.3837967E0,6.7809753E0,0E0,0E0,0E0,0E0,0E0,0E0,0E0,0E0],"parents":[2147483647,0,0,1,1,2,2,3,3,4,4,5,5,6,6],"right_children":[2,4,6,8,10,12,14,-1,-1,-1,-1,-1,-1,-1,-1],"split_conditions":[5.1E0,2.3E0,7.2E0,1.4E0,3.9E0,6.4E0,1.13E1,-7.4663594E-2,-5.3334218E-2,-2.0469716E-2,2.6005446E-3,2.9965779E-2,4.990634E-2,7.423244E-2,2.7916012E-2],"split_indices":[0,0,0,0,0,0,0,0,0,0,0,0,0,0,0],"split_type":[0,0,0,0,0,0,0,0,0,0,0,0,0,0,0],"sum_hessian":[9.1E2,5.38E2,3.72E2,2.65E2,2.73E2,2.06E2,1.66E2,1.07E2,1.58E2,1.74E2,9.9E1,1.23E2,8.3E1,1.56E2,1E1],"tree_param":{"num_deleted":"0","num_feature":"1","num_nodes":"15","size_leaf_vector":"1"}},{"base_weights":[1.127572E-4,-7.005547E-1,1.0126052E0,-1.1821818E0,-2.30433E-1,6.745315E-1,1.3080009E0,-7.096498E-2,-5.068428E-2,-2.4501441E-2,-2.9293667E-3,2.1630248E-2,3.964156E-2,6.710282E-2,2.2185888E-2],"categories":[],"categories_nodes":[],"categories_segments":[],"categories_sizes":[],"default_left":[0,0,0,0,0,0,0,0,0,0,0,0,0,0,0],"id":4,"left_children":[1,3,5,7,9,11,13,-1,-1,-1,-1,-1,-1,-1,-1],"loss_changes":[6.4699146E2,1.21769775E2,3.6367554E1,9.188873E0,1.2194546E1,4.694107E0,5.232361E0,0E0,0E0,0E0,0E0,0E0,0E0,0E0,0E0],"parents":[2147483647,0,0,1,1,2,2,3,3,4,4,5,5,6,6],"right_children":[2,4,6,8,10,12,14,-1,-1,-1,-1,-1,-1,-1,-1],"split_conditions":[5.1E0,2.3E0,7E0,1.4E0,3.2E0,6E0,1.18E1,-7.096498E-2,-5.068428E-2,-2.4501441E-2,-2.9293667E-3,2.1630248E-2,3.964156E-2,6.710282E-2,2.2185888E-2],"split_indices":[0,0,0,0,0,0,0,0,0,0,0,0,0,0,0],"split_type":[0,0,0,0,0,0,0,0,0,0,0,0,0,0,0],"sum_hessian":[9.1E2,5.38E2,3.72E2,2.65E2,2.73E2,1.75E2,1.97E2,1.07E2,1.58E2,1.08E2,1.65E2,5.9E1,1.16E2,1.89E2,8E0],"tree_param":{"num_deleted":"0","num_feature":"1","num_nodes":"15","size_leaf_vector":"1"}},{"base_weights":[1.0872031E-4,-6.6580355E-1,9.6237844E-1,-1.12353E0,-2.1901146E-1,6.8780166E-1,1.2969594E0,-6.7449585E-2,-4.8166003E-2,-1.86408E-2,2.6168309E-3,2.6941968E-2,4.497552E-2,6.721069E-2,2.5230322E-2],"categories":[],"categories_nodes":[],"categories_segments":[],"categories_sizes":[],"default_left":[0,0,0,0,0,0,0,0,0,0,0,0,0,0,0],"id":5,"left_children":[1,3,5,7,9,11,13,-1,-1,-1,-1,-1,-1,-1,-1],"loss_changes":[5.8439795E2,1.0998407E2,3.3374756E1,8.308716E0,1.1454784E1,6.0433884E0,5.574524E0,0E0,0E0,0E0,0E0,0E0,0E0,0E0,0E0],"parents":[2147483647,0,0,1,1,2,2,3,3,4,4,5,5,6,6],"right_children":[2,4,6,8,10,12,14,-1,-1,-1,-1,-1,-1,-1,-1],"split_conditions":[5.1E0,2.3E0,7.2E0,1.4E0,3.9E0,6.4E0,1.13E1,-6.7449585E-2,-4.8166003E-2,-1.86408E-2,2.6168309E-3,2.6941968E-2,4.497552E-2,6.721069E-2,2.5230322E-2],"split_indices":[0,0,0,0,0,0,0,0,0,0,0,0,0,0,0],"split_type":[0,0,0,0,0,0,0,0,0,0,0,0,0,0,0],"sum_hessian":[9.1E2,5.38E2,3.72E2,2.65E2,2.73E2,2.06E2,1.66E2,1.07E2,1.58E2,1.74E2,9.9E1,1.23E2,8.3E1,1.56E2,1E1],"tree_param":{"num_deleted":"0","num_feature":"1","num_nodes":"15","size_leaf_vector":"1"}},{"base_weights":[1.391849E-4,-6.327576E-1,9.1470015E-1,-1.0677881E0,-2.081194E-1,6.53759E-1,1.232665E0,-6.7631885E-2,-4.7442716E-2,-2.2364128E-2,-2.4912409E-3,1.924211E-2,3.7918102E-2,6.3871555E-2,2.4083486E-2],"categories":[],"categories_nodes":[],"categories_segments":[],"categories_sizes":[],"default_left":[0,0,0,0,0,0,0,0,0,0,0,0,0,0,0],"id":6,"left_children":[1,3,5,7,9,11,13,-1,-1,-1,-1,-1,-1,-1,-1],"loss_changes":[5.278863E2,9.934755E1,3.0141998E1,7.72818E0,1.0350869E1,5.53096E0,4.999115E0,0E0,0E0,0E0,0E0,0E0,0E0,0E0,0E0],"parents":[2147483647,0,0,1,1,2,2,3,3,4,4,5,5,6,6],"right_children":[2,4,6,8,10,12,14,-1,-1,-1,-1,-1,-1,-1,-1],"split_conditions":[5.1E0,2.3E0,7.2E0,1.2E0,3.2E0,6E0,1.13E1,-6.7631885E-2,-4.7442716E-2,-2.2364128E-2,-2.4912409E-3,1.924211E-2,3.7918102E-2,6.3871555E-2,2.4083486E-2],"split_indices":[0,0,0,0,0,0,0,0,0,0,0,0,0,0,0],"split_type":[0,0,0,0,0,0,0,0,0,0,0,0,0,0,0],"sum_hessian":[9.1E2,5.38E2,3.72E2,2.65E2,2.73E2,2.06E2,1.66E2,7.5E1,1.9E2,1.08E2,1.65E2,5.9E1,1.47E2,1.56E2,1E1],"tree_param":{"num_deleted":"0","num_feature":"1","num_nodes":"15","size_leaf_vector":"1"}},{"base_weights":[1.3790297E-4,-6.1805934E-1,8.463452E-1,-1.0373083E0,-2.3302741E-1,4.5230848E-1,1.0573158E0,-6.4294785E-2,-4.6235487E-2,-2.230972E-2,-3.0628736E-3,8.017502E-3,2.5671965E-2,4.2538803E-2,6.134775E-2],"categories":[],"categories_nodes":[],"categories_segments":[],"categories_sizes":[],"default_left":[0,0,0,0,0,0,0,0,0,0,0,0,0,0,0],"id":7,"left_children":[1,3,5,7,9,11,13,-1,-1,-1,-1,-1,-1,-1,-1],"loss_changes":[4.7708817E2,8.482884E1,3.1526855E1,5.8645325E0,1.0078595E1,2.3449516E0,7.7154236E0,0E0,0E0,0E0,0E0,0E0,0E0,0E0,0E0],"parents":[2147483647,0,0,1,1,2,2,3,3,4,4,5,5,6,6],"right_children":[2,4,6,8,10,12,14,-1,-1,-1,-1,-1,-1,-1,-1],"split_conditions":[5E0,2.2E0,6.4E0,1.2E0,3.2E0,5.2E0,7.4E0,-6.4294785E-2,-4.6235487E-2,-2.230972E-2,-3.0628736E-3,8.017502E-3,2.5671965E-2,4.2538803E-2,6.134775E-2],"split_indices":[0,0,0,0,0,0,0,0,0,0,0,0,0,0,0],"split_type":[0,0,0,0,0,0,0,0,0,0,0,0,0,0,0],"sum_hessian":[9.1E2,5.26E2,3.84E2,2.51E2,2.75E2,1.35E2,2.49E2,7.5E1,1.76E2,1.22E2,1.53E2,2.4E1,1.11E2,1.15E2,1.34E2],"tree_param":{"num_deleted":"0","num_feature":"1","num_nodes":"15","size_leaf_vector":"1"}},{"base_weights":[1.3285181E-4,-7.124573E-1,6.6441154E-1,-9.9935913E-1,-3.5998142E-1,2.7975723E-1,1.0048655E0,-6.1122347E-2,-4.45925E-2,-2.2089237E-2,-9.611144E-3,3.4510028E-3,2.439983E-2,4.04302E-2,5.8303084E-2],"categories":[],"categories_nodes":[],"categories_segments":[],"categories_sizes":[],"default_left":[0,0,0,0,0,0,0,0,0,0,0,0,0,0,0],"id":8,"left_children":[1,3,5,7,9,11,13,-1,-1,-1,-1,-1,-1,-1,-1],"loss_changes":[4.317029E2,4.413568E1,6.1530624E1,4.7138824E0,2.645998E0,9.752401E0,6.966263E0,0E0,0E0,0E0,0E0,0E0,0E0,0E0,0E0],"parents":[2147483647,0,0,1,1,2,2,3,3,4,4,5,5,6,6],"right_children":[2,4,6,8,10,12,14,-1,-1,-1,-1,-1,-1,-1,-1],"split_conditions":[3.9E0,2.1E0,6.4E0,1.2E0,3.2E0,5.2E0,7.4E0,-6.1122347E-2,-4.45925E-2,-2.2089237E-2,-9.611144E-3,3.4510028E-3,2.439983E-2,4.04302E-2,5.8303084E-2],"split_indices":[0,0,0,0,0,0,0,0,0,0,0,0,0,0,0],"split_type":[0,0,0,0,0,0,0,0,0,0,0,0,0,0,0],"sum_hessian":[9.1E2,4.39E2,4.71E2,2.41E2,1.98E2,2.22E2,2.49E2,7.5E1,1.66E2,1.32E2,6.6E1,1.11E2,1.11E2,1.15E2,1.34E2],"tree_param":{"num_deleted":"0","num_feature":"1","num_nodes":"15","size_leaf_vector":"1"}},{"base_weights":[1.1429057E-4,-6.7714673E-1,6.314591E-1,-9.49828E-1,-3.4214166E-1,2.6589423E-1,9.550171E-1,-5.810644E-2,-4.2376224E-2,-2.099308E-2,-9.13776E-3,3.2799877E-3,2.3190735E-2,4.1074112E-2,5.877098E-2],"categories":[],"categories_nodes":[],"categories_segments":[],"categories_sizes":[],"default_left":[0,0,0,0,0,0,0,0,0,0,0,0,0,0,0],"id":9,"left_children":[1,3,5,7,9,11,13,-1,-1,-1,-1,-1,-1,-1,-1],"loss_changes":[3.8995776E2,3.986885E1,5.5574905E1,4.2710876E0,2.388382E0,8.809821E0,6.3922577E0,0E0,0E0,0E0,0E0,0E0,0E0,0E0,0E0],"parents":[2147483647,0,0,1,1,2,2,3,3,4,4,5,5,6,6],"right_children":[2,4,6,8,10,12,14,-1,-1,-1,-1,-1,-1,-1,-1],"split_conditions":[3.9E0,2.1E0,6.4E0,1.2E0,3.2E0,5.2E0,7.7E0,-5.810644E-2,-4.2376224E-2,-2.099308E-2,-9.13776E-3,3.2799877E-3,2.3190735E-2,4.1074112E-2,5.877098E-2],"split_indices":[0,0,0,0,0,0,0,0,0,0,0,0,0,0,0],"split_type":[0,0,0,0,0,0,0,0,0,0,0,0,0,0,0],"sum_hessian":[9.1E2,4.39E2,4.71E2,2.41E2,1.98E2,2.22E2,2.49E2,7.5E1,1.66E2,1.32E2,6.6E1,1.11E2,1.11E2,1.58E2,9.1E1],"tree_param":{"num_deleted":"0","num_feature":"1","num_nodes":"15","size_leaf_vector":"1"}},{"base_weights":[1.0390915E-4,-6.435862E-1,6.001538E-1,-8.9139825E-1,-3.0976495E-1,2.5271827E-1,9.076657E-1,-5.271141E-2,-3.8198527E-2,-1.9066697E-2,-8.687685E-3,3.1174559E-3,2.204155E-2,3.639011E-2,5.277458E-2],"categories":[],"categories_nodes":[],"categories_segments":[],"categories_sizes":[],"default_left":[0,0,0,0,0,0,0,0,0,0,0,0,0,0,0],"id":10,"left_children":[1,3,5,7,9,11,13,-1,-1,-1,-1,-1,-1,-1,-1],"loss_changes":[3.5225656E2,3.612285E1,5.019934E1,4.42334E0,1.7735023E0,7.958338E0,5.878937E0,0E0,0E0,0E0,0E0,0E0,0E0,0E0,0E0],"parents":[2147483647,0,0,1,1,2,2,3,3,4,4,5,5,6,6],"right_children":[2,4,6,8,10,12,14,-1,-1,-1,-1,-1,-1,-1,-1],"split_conditions":[3.9E0,2.2E0,6.4E0,1.4E0,3.2E0,5.2E0,7.4E0,-5.271141E-2,-3.8198527E-2,-1.9066697E-2,-8.687685E-3,3.1174559E-3,2.204155E-2,3.639011E-2,5.277458E-2],"split_indices":[0,0,0,0,0,0,0,0,0,0,0,0,0,0,0],"split_type":[0,0,0,0,0,0,0,0,0,0,0,0,0,0,0],"sum_hessian":[9.1E2,4.39E2,4.71E2,2.51E2,1.88E2,2.22E2,2.49E2,1.07E2,1.44E2,1.22E2,6.6E1,1.11E2,1.11E2,1.15E2,1.34E2],"tree_param":{"num_deleted":"0","num_feature":"1","num_nodes":"15","size_leaf_vector":"1"}},{"base_weights":[9.3919385E-5,-5.048968E-1,6.9134074E-1,-8.158837E-1,-1.5705979E-1,4.4617167E-1,9.206359E-1,-4.878187E-2,-3.3652816E-2,-1.2982219E-2,1.7369818E-3,1.2931222E-2,2.7888596E-2,4.7556322E-2,8.732732E-3],"categories":[],"categories_nodes":[],"categories_segments":[],"categories_sizes":[],"default_left":[0,0,0,0,0,0,0,0,0,0,0,0,0,0,0],"id":11,"left_children":[1,3,5,7,9,11,13,-1,-1,-1,-1,-1,-1,-1,-1],"loss_changes":[3.183548E2,5.6878906E1,2.1232437E1,5.6865234E0,4.9279366E0,3.7906456E0,4.337448E0,0E0,0E0,0E0,0E0,0E0,0E0,0E0,0E0],"parents":[2147483647,0,0,1,1,2,2,3,3,4,4,5,5,6,6],"right_children":[2,4,6,8,10,12,14,-1,-1,-1,-1,-1,-1,-1,-1],"split_conditions":[5E0,2.5E0,7E0,1.5E0,3.9E0,6E0,1.18E1,-4.878187E-2,-3.3652816E-2,-1.2982219E-2,1.7369818E-3,1.2931222E-2,2.7888596E-2,4.7556322E-2,8.732732E-3],"split_indices":[0,0,0,0,0,0,0,0,0,0,0,0,0,0,0],"split_type":[0,0,0,0,0,0,0,0,0,0,0,0,0,0,0],"sum_hessian":[9.1E2,5.26E2,3.84E2,2.77E2,2.49E2,1.87E2,1.97E2,1.28E2,1.49E2,1.62E2,8.7E1,7.1E1,1.16E2,1.89E2,8E0],"tree_param":{"num_deleted":"0","num_feature":"1","num_nodes":"15","size_leaf_vector":"1"}},{"base_weights":[9.2988674E-5,-4.7982973E-1,6.5702593E-1,-7.894668E-1,-1.6363396E-1,4.577248E-1,9.144506E-1,-4.7683734E-2,-3.364821E-2,-1.3079451E-2,1.6511247E-3,1.2293646E-2,2.7884757E-2,4.781295E-2,1.1729971E-2],"categories":[],"categories_nodes":[],"categories_segments":[],"categories_sizes":[],"default_left":[0,0,0,0,0,0,0,0,0,0,0,0,0,0,0],"id":12,"left_children":[1,3,5,7,9,11,13,-1,-1,-1,-1,-1,-1,-1,-1],"loss_changes":[2.8753265E2,5.1467247E1,1.9333862E1,4.4469604E0,5.055673E0,4.5010567E0,4.5224E0,0E0,0E0,0E0,0E0,0E0,0E0,0E0,0E0],"parents":[2147483647,0,0,1,1,2,2,3,3,4,4,5,5,6,6],"right_children":[2,4,6,8,10,12,14,-1,-1,-1,-1,-1,-1,-1,-1],"split_conditions":[5E0,2.3E0,7.2E0,1.4E0,3.9E0,6E0,1.13E1,-4.7683734E-2,-3.364821E-2,-1.3079451E-2,1.6511247E-3,1.2293646E-2,2.7884757E-2,4.781295E-2,1.1729971E-2],"split_indices":[0,0,0,0,0,0,0,0,0,0,0,0,0,0,0],"split_type":[0,0,0,0,0,0,0,0,0,0,0,0,0,0,0],"sum_hessian":[9.1E2,5.26E2,3.84E2,2.65E2,2.61E2,2.18E2,1.66E2,1.07E2,1.58E2,1.74E2,8.7E1,7.1E1,1.47E2,1.56E2,1E1],"tree_param":{"num_deleted":"0","num_feature":"1","num_nodes":"15","size_leaf_vector":"1"}},{"base_weights":[9.599698E-5,-4.4390133E-1,6.416897E-1,-7.373446E-1,-1.308436E-1,4.5513594E-1,8.690846E-1,-4.4110227E-2,-3.0392472E-2,-1.1687133E-2,1.9095166E-3,1.3144426E-2,2.6499942E-2,4.5437526E-2,1.1196791E-2],"categories":[],"categories_nodes":[],"categories_segments":[],"categories_sizes":[],"default_left":[0,0,0,0,0,0,0,0,0,0,0,0,0,0,0],"id":13,"left_children":[1,3,5,7,9,11,13,-1,-1,-1,-1,-1,-1,-1,-1],"loss_changes":[2.597977E2,4.9418587E1,1.5427628E1,4.6786804E0,4.566006E0,2.8398514E0,4.0701065E0,0E0,0E0,0E0,0E0,0E0,0E0,0E0,0E0],"parents":[2147483647,0,0,1,1,2,2,3,3,4,4,5,5,6,6],"right_children":[2,4,6,8,10,12,14,-1,-1,-1,-1,-1,-1,-1,-1],"split_conditions":[5.1E0,2.5E0,7.2E0,1.5E0,3.9E0,6E0,1.13E1,-4.4110227E-2,-3.0392472E-2,-1.1687133E-2,1.9095166E-3,1.3144426E-2,2.6499942E-2,4.5437526E-2,1.1196791E-2],"split_indices":[0,0,0,0,0,0,0,0,0,0,0,0,0,0,0],"split_type":[0,0,0,0,0,0,0,0,0,0,0,0,0,0,0],"sum_hessian":[9.1E2,5.38E2,3.72E2,2.77E2,2.61E2,2.06E2,1.66E2,1.28E2,1.49E2,1.62E2,9.9E1,5.9E1,1.47E2,1.56E2,1E1],"tree_param":{"num_deleted":"0","num_feature":"1","num_nodes":"15","size_leaf_vector":"1"}},{"base_weights":[1.043451E-4,-4.2186263E-1,6.0986334E-1,-7.292715E-1,-1.5141512E-1,4.598902E-1,8.708538E-1,-4.5702156E-2,-3.2290716E-2,-1.571579E-2,-1.4899726E-3,1.6781356E-2,2.943793E-2,4.6085577E-2,1.0687843E-2],"categories":[],"categories_nodes":[],"categories_segments":[],"categories_sizes":[],"default_left":[0,0,0,0,0,0,0,0,0,0,0,0,0,0,0],"id":14,"left_children":[1,3,5,7,9,11,13,-1,-1,-1,-1,-1,-1,-1,-1],"loss_changes":[2.346559E2,4.470092E1,1.419931E1,3.2956848E0,5.6962814E0,3.6296387E0,4.3144608E0,0E0,0E0,0E0,0E0,0E0,0E0,0E0,0E0],"parents":[2147483647,0,0,1,1,2,2,3,3,4,4,5,5,6,6],"right_children":[2,4,6,8,10,12,14,-1,-1,-1,-1,-1,-1,-1,-1],"split_conditions":[5.1E0,2.2E0,7.4E0,1.2E0,3.2E0,6.4E0,1.13E1,-4.5702156E-2,-3.2290716E-2,-1.571579E-2,-1.4899726E-3,1.6781356E-2,2.943793E-2,4.6085577E-2,1.0687843E-2],"split_indices":[0,0,0,0,0,0,0,0,0,0,0,0,0,0,0],"split_type":[0,0,0,0,0,0,0,0,0,0,0,0,0,0,0],"sum_hessian":[9.1E2,5.38E2,3.72E2,2.51E2,2.87E2,2.38E2,1.34E2,7.5E1,1.76E2,1.22E2,1.65E2,1.23E2,1.15E2,1.24E2,1E1],"tree_param":{"num_deleted":"0","num_feature":"1","num_nodes":"15","size_leaf_vector":"1"}},{"base_weights":[1.0765384E-4,-4.964747E-1,4.691607E-1,-7.032272E-1,-2.4632333E-1,1.9719082E-1,7.066176E-1,-4.344712E-2,-3.1180052E-2,-1.5499289E-2,-6.092289E-3,2.471143E-3,1.6962005E-2,2.9655932E-2,4.475464E-2],"categories":[],"categories_nodes":[],"categories_segments":[],"categories_sizes":[],"default_left":[0,0,0,0,0,0,0,0,0,0,0,0,0,0,0],"id":15,"left_children":[1,3,5,7,9,11,13,-1,-1,-1,-1,-1,-1,-1,-1],"loss_changes":[2.1242622E2,2.2738495E1,3.0149208E1,2.6513824E0,1.5629883E0,4.6011066E0,4.817032E0,0E0,0E0,0E0,0E0,0E0,0E0,0E0,0E0],"parents":[2147483647,0,0,1,1,2,2,3,3,4,4,5,5,6,6],"right_children":[2,4,6,8,10,12,14,-1,-1,-1,-1,-1,-1,-1,-1],"split_conditions":[4E0,2.1E0,6.4E0,1.2E0,3.2E0,5.2E0,7.7E0,-4.344712E-2,-3.1180052E-2,-1.5499289E-2,-6.092289E-3,2.471143E-3,1.6962005E-2,2.9655932E-2,4.475464E-2],"split_indices":[0,0,0,0,0,0,0,0,0,0,0,0,0,0,0],"split_type":[0,0,0,0,0,0,0,0,0,0,0,0,0,0,0],"sum_hessian":[9.1E2,4.42E2,4.68E2,2.41E2,2.01E2,2.19E2,2.49E2,7.5E1,1.66E2,1.32E2,6.9E1,1.08E2,1.11E2,1.58E2,9.1E1],"tree_param":{"num_deleted":"0","num_feature":"1","num_nodes":"15","size_leaf_vector":"1"}},{"base_weights":[9.963201E-5,-4.750115E-1,4.4299963E-1,-6.6837424E-1,-2.3747984E-1,1.8475223E-1,6.715843E-1,-4.1303348E-2,-2.9630383E-2,-1.7495131E-2,-8.8225985E-3,2.2712697E-3,1.6121475E-2,2.818246E-2,4.2541225E-2],"categories":[],"categories_nodes":[],"categories_segments":[],"categories_sizes":[],"default_left":[0,0,0,0,0,0,0,0,0,0,0,0,0,0,0],"id":16,"left_children":[1,3,5,7,9,11,13,-1,-1,-1,-1,-1,-1,-1,-1],"loss_changes":[1.9190916E2,2.0050385E1,2.7738747E1,2.4018326E0,1.3035831E0,4.2629704E0,4.35701E0,0E0,0E0,0E0,0E0,0E0,0E0,0E0,0E0],"parents":[2147483647,0,0,1,1,2,2,3,3,4,4,5,5,6,6],"right_children":[2,4,6,8,10,12,14,-1,-1,-1,-1,-1,-1,-1,-1],"split_conditions":[3.9E0,2.1E0,6.4E0,1.2E0,2.8E0,5.2E0,7.7E0,-4.1303348E-2,-2.9630383E-2,-1.7495131E-2,-8.8225985E-3,2.2712697E-3,1.6121475E-2,2.818246E-2,4.2541225E-2],"split_indices":[0,0,0,0,0,0,0,0,0,0,0,0,0,0,0],"split_type":[0,0,0,0,0,0,0,0,0,0,0,0,0,0,0],"sum_hessian":[9.1E2,4.39E2,4.71E2,2.41E2,1.98E2,2.22E2,2.49E2,7.5E1,1.66E2,6.8E1,1.3E2,1.11E2,1.11E2,1.58E2,9.1E1],"tree_param":{"num_deleted":"0","num_feature":"1","num_nodes":"15","size_leaf_vector":"1"}},{"base_weights":[8.574452E-5,-4.514819E-1,4.2103848E-1,-6.352486E-1,-2.2573808E-1,1.7559719E-1,6.3828796E-1,-3.926535E-2,-2.8157735E-2,-1.40706375E-2,-5.592523E-3,2.158725E-3,1.5322602E-2,2.6782198E-2,4.043728E-2],"categories":[],"categories_nodes":[],"categories_segments":[],"categories_sizes":[],"default_left":[0,0,0,0,0,0,0,0,0,0,0,0,0,0,0],"id":17,"left_children":[1,3,5,7,9,11,13,-1,-1,-1,-1,-1,-1,-1,-1],"loss_changes":[1.7336084E2,1.8109642E1,2.5055893E1,2.1757812E0,1.2303143E0,3.8509464E0,3.9409256E0,0E0,0E0,0E0,0E0,0E0,0E0,0E0,0E0],"parents":[2147483647,0,0,1,1,2,2,3,3,4,4,5,5,6,6],"right_children":[2,4,6,8,10,12,14,-1,-1,-1,-1,-1,-1,-1,-1],"split_conditions":[3.9E0,2.1E0,6.4E0,1.2E0,3.2E0,5.2E0,7.7E0,-3.926535E-2,-2.8157735E-2,-1.40706375E-2,-5.592523E-3,2.158725E-3,1.5322602E-2,2.6782198E-2,4.043728E-2],"split_indices":[0,0,0,0,0,0,0,0,0,0,0,0,0,0,0],"split_type":[0,0,0,0,0,0,0,0,0,0,0,0,0,0,0],"sum_hessian":[9.1E2,4.39E2,4.71E2,2.41E2,1.98E2,2.22E2,2.49E2,7.5E1,1.66E2,1.32E2,6.6E1,1.11E2,1.11E2,1.58E2,9.1E1],"tree_param":{"num_deleted":"0","num_feature":"1","num_nodes":"15","size_leaf_vector":"1"}},{"base_weights":[7.8826066E-5,-3.541848E-1,4.8500574E-1,-5.7382566E-1,-1.0852748E-1,3.2684943E-1,6.6709286E-1,-3.4497175E-2,-2.350694E-2,-8.982516E-3,1.2222346E-3,8.762941E-3,2.0206587E-2,3.5052206E-2,4.395977E-3],"categories":[],"categories_nodes":[],"categories_segments":[],"categories_sizes":[],"default_left":[0,0,0,0,0,0,0,0,0,0,0,0,0,0,0],"id":18,"left_children":[1,3,5,7,9,11,13,-1,-1,-1,-1,-1,-1,-1,-1],"loss_changes":[1.5667429E2,2.8372734E1,1.0869286E1,3.022728E0,2.3687315E0,2.3659477E0,3.4384918E0,0E0,0E0,0E0,0E0,0E0,0E0,0E0,0E0],"parents":[2147483647,0,0,1,1,2,2,3,3,4,4,5,5,6,6],"right_children":[2,4,6,8,10,12,14,-1,-1,-1,-1,-1,-1,-1,-1],"split_conditions":[5E0,2.5E0,7.1E0,1.5E0,3.9E0,6E0,1.13E1,-3.4497175E-2,-2.350694E-2,-8.982516E-3,1.2222346E-3,8.762941E-3,2.0206587E-2,3.5052206E-2,4.395977E-3],"split_indices":[0,0,0,0,0,0,0,0,0,0,0,0,0,0,0],"split_type":[0,0,0,0,0,0,0,0,0,0,0,0,0,0,0],"sum_hessian":[9.1E2,5.26E2,3.84E2,2.77E2,2.49E2,2.07E2,1.77E2,1.28E2,1.49E2,1.62E2,8.7E1,7.1E1,1.36E2,1.67E2,1E1],"tree_param":{"num_deleted":"0","num_feature":"1","num_nodes":"15","size_leaf_vector":"1"}},{"base_weights":[7.778903E-5,-3.3660033E-1,4.609331E-1,-5.45343E-1,-1.031321E-1,3.401129E-1,6.821549E-1,-3.3738237E-2,-2.302069E-2,-1.0977217E-2,-1.4568908E-3,8.330884E-3,2.0381073E-2,3.64671E-2,4.196161E-3],"categories":[],"categories_nodes":[],"categories_segments":[],"categories_sizes":[],"default_left":[0,0,0,0,0,0,0,0,0,0,0,0,0,0,0],"id":19,"left_children":[1,3,5,7,9,11,13,-1,-1,-1,-1,-1,-1,-1,-1],"loss_changes":[1.4150583E2,2.5626987E1,1.0058296E1,2.745018E0,2.147063E0,2.8718967E0,3.749691E0,0E0,0E0,0E0,0E0,0E0,0E0,0E0,0E0],"parents":[2147483647,0,0,1,1,2,2,3,3,4,4,5,5,6,6],"right_children":[2,4,6,8,10,12,14,-1,-1,-1,-1,-1,-1,-1,-1],"split_conditions":[5E0,2.5E0,7.4E0,1.4E0,3.2E0,6E0,1.13E1,-3.3738237E-2,-2.302069E-2,-1.0977217E-2,-1.4568908E-3,8.330884E-3,2.0381073E-2,3.64671E-2,4.196161E-3],"split_indices":[0,0,0,0,0,0,0,0,0,0,0,0,0,0,0],"split_type":[0,0,0,0,0,0,0,0,0,0,0,0,0,0,0],"sum_hessian":[9.1E2,5.26E2,3.84E2,2.77E2,2.49E2,2.5E2,1.34E2,1.07E2,1.7E2,9.6E1,1.53E2,7.1E1,1.79E2,1.24E2,1E1],"tree_param":{"num_deleted":"0","num_feature":"1","num_nodes":"15","size_leaf_vector":"1"}},{"base_weights":[7.415067E-5,-3.8556397E-1,3.6433345E-1,-5.468776E-1,-1.9039829E-1,1.5214571E-1,5.496013E-1,-3.3961035E-2,-2.4168747E-2,-1.2022344E-2,-4.6293E-3,1.9501189E-3,1.3045E-2,2.4246233E-2,3.9327234E-2],"categories":[],"categories_nodes":[],"categories_segments":[],"categories_sizes":[],"default_left":[0,0,0,0,0,0,0,0,0,0,0,0,0,0,0],"id":20,"left_children":[1,3,5,7,9,11,13,-1,-1,-1,-1,-1,-1,-1,-1],"loss_changes":[1.2811072E2,1.3842789E1,1.8353504E1,1.7054901E0,9.666023E-1,2.6968846E0,3.4497604E0,0E0,0E0,0E0,0E0,0E0,0E0,0E0,0E0],"parents":[2147483647,0,0,1,1,2,2,3,3,4,4,5,5,6,6],"right_children":[2,4,6,8,10,12,14,-1,-1,-1,-1,-1,-1,-1,-1],"split_conditions":[4E0,2.1E0,6.4E0,1.2E0,3.2E0,5.2E0,8.3E0,-3.3961035E-2,-2.4168747E-2,-1.2022344E-2,-4.6293E-3,1.9501189E-3,1.3045E-2,2.4246233E-2,3.9327234E-2],"split_indices":[0,0,0,0,0,0,0,0,0,0,0,0,0,0,0],"split_type":[0,0,0,0,0,0,0,0,0,0,0,0,0,0,0],"sum_hessian":[9.1E2,4.42E2,4.68E2,2.41E2,2.01E2,2.19E2,2.49E2,7.5E1,1.66E2,1.32E2,6.9E1,1.08E2,1.11E2,1.98E2,5.1E1],"tree_param":{"num_deleted":"0","num_feature":"1","num_nodes":"15","size_leaf_vector":"1"}},{"base_weights":[7.46118E-5,-3.688821E-1,3.4401715E-1,-5.1977396E-1,-1.835318E-1,1.4252107E-1,5.223756E-1,-3.2285325E-2,-2.2967545E-2,-1.3670707E-2,-6.739409E-3,2.885693E-3,1.3847493E-2,2.3040015E-2,3.7398692E-2],"categories":[],"categories_nodes":[],"categories_segments":[],"categories_sizes":[],"default_left":[0,0,0,0,0,0,0,0,0,0,0,0,0,0,0],"id":21,"left_children":[1,3,5,7,9,11,13,-1,-1,-1,-1,-1,-1,-1,-1],"loss_changes":[1.1573271E2,1.22104645E1,1.6888535E1,1.5448227E0,8.350034E-1,2.5263343E0,3.128151E0,0E0,0E0,0E0,0E0,0E0,0E0,0E0,0E0],"parents":[2147483647,0,0,1,1,2,2,3,3,4,4,5,5,6,6],"right_children":[2,4,6,8,10,12,14,-1,-1,-1,-1,-1,-1,-1,-1],"split_conditions":[3.9E0,2.1E0,6.4E0,1.2E0,2.8E0,5.7E0,8.3E0,-3.2285325E-2,-2.2967545E-2,-1.3670707E-2,-6.739409E-3,2.885693E-3,1.3847493E-2,2.3040015E-2,3.7398692E-2],"split_indices":[0,0,0,0,0,0,0,0,0,0,0,0,0,0,0],"split_type":[0,0,0,0,0,0,0,0,0,0,0,0,0,0,0],"sum_hessian":[9.1E2,4.39E2,4.71E2,2.41E2,1.98E2,2.22E2,2.49E2,7.5E1,1.66E2,6.8E1,1.3E2,1.37E2,8.5E1,1.98E2,5.1E1],"tree_param":{"num_deleted":"0","num_feature":"1","num_nodes":"15","size_leaf_vector":"1"}},{"base_weights":[7.2543044E-5,-2.8936958E-1,3.9626977E-1,-4.6893445E-1,-8.853599E-2,2.9033706E-1,5.902908E-1,-2.8305018E-2,-1.911228E-2,-7.3327E-3,1.0060254E-3,7.1597137E-3,1.7379059E-2,3.183013E-2,5.178928E-4],"categories":[],"categories_nodes":[],"categories_segments":[],"categories_sizes":[],"default_left":[0,0,0,0,0,0,0,0,0,0,0,0,0,0,0],"id":22,"left_children":[1,3,5,7,9,11,13,-1,-1,-1,-1,-1,-1,-1,-1],"loss_changes":[1.04584656E2,1.8963509E1,7.7415886E0,2.1252594E0,1.5816758E0,2.0644188E0,3.6191978E0,0E0,0E0,0E0,0E0,0E0,0E0,0E0,0E0],"parents":[2147483647,0,0,1,1,2,2,3,3,4,4,5,5,6,6],"right_children":[2,4,6,8,10,12,14,-1,-1,-1,-1,-1,-1,-1,-1],"split_conditions":[5E0,2.5E0,7.4E0,1.5E0,3.9E0,6E0,1.13E1,-2.8305018E-2,-1.911228E-2,-7.3327E-3,1.0060254E-3,7.1597137E-3,1.7379059E-2,3.183013E-2,5.178928E-4],"split_indices":[0,0,0,0,0,0,0,0,0,0,0,0,0,0,0],"split_type":[0,0,0,0,0,0,0,0,0,0,0,0,0,0,0],"sum_hessian":[9.1E2,5.26E2,3.84E2,2.77E2,2.49E2,2.5E2,1.34E2,1.28E2,1.49E2,1.62E2,8.7E1,7.1E1,1.79E2,1.24E2,1E1],"tree_param":{"num_deleted":"0","num_feature":"1","num_nodes":"15","size_leaf_vector":"1"}},{"base_weights":[7.235781E-5,-2.6773074E-1,3.870584E-1,-4.6376655E-1,-9.526979E-2,2.871784E-1,5.6101596E-1,-2.9295668E-2,-2.0434959E-2,-9.975187E-3,-8.7311445E-4,1.0564051E-2,1.829172E-2,3.0004958E-2,-2.6413284E-3],"categories":[],"categories_nodes":[],"categories_segments":[],"categories_sizes":[],"default_left":[0,0,0,0,0,0,0,0,0,0,0,0,0,0,0],"id":23,"left_children":[1,3,5,7,9,11,13,-1,-1,-1,-1,-1,-1,-1,-1],"loss_changes":[9.4516075E1,1.8178608E1,6.3197174E0,1.4555664E0,2.332249E0,1.3494835E0,3.2704773E0,0E0,0E0,0E0,0E0,0E0,0E0,0E0,0E0],"parents":[2147483647,0,0,1,1,2,2,3,3,4,4,5,5,6,6],"right_children":[2,4,6,8,10,12,14,-1,-1,-1,-1,-1,-1,-1,-1],"split_conditions":[5.1E0,2.2E0,7.4E0,1.2E0,3.2E0,6.4E0,1.18E1,-2.9295668E-2,-2.0434959E-2,-9.975187E-3,-8.7311445E-4,1.0564051E-2,1.829172E-2,3.0004958E-2,-2.6413284E-3],"split_indices":[0,0,0,0,0,0,0,0,0,0,0,0,0,0,0],"split_type":[0,0,0,0,0,0,0,0,0,0,0,0,0,0,0],"sum_hessian":[9.1E2,5.38E2,3.72E2,2.51E2,2.87E2,2.38E2,1.34E2,7.5E1,1.76E2,1.22E2,1.65E2,1.23E2,1.15E2,1.26E2,8E0],"tree_param":{"num_deleted":"0","num_feature":"1","num_nodes":"15","size_leaf_vector":"1"}},{"base_weights":[6.3948784E-5,-2.9828244E-1,3.1453702E-1,-4.4077554E-1,-1.3143201E-1,1.402233E-1,4.4924358E-1,-2.7850157E-2,-1.9418983E-2,-9.480483E-3,-2.7361892E-3,3.1197553E-3,1.1907024E-2,1.9573588E-2,3.3084635E-2],"categories":[],"categories_nodes":[],"categories_segments":[],"categories_sizes":[],"default_left":[0,0,0,0,0,0,0,0,0,0,0,0,0,0,0],"id":24,"left_children":[1,3,5,7,9,11,13,-1,-1,-1,-1,-1,-1,-1,-1],"loss_changes":[8.556558E1,1.1068787E1,1.0362659E1,1.3183136E0,9.5803046E-1,1.4711812E0,2.8093643E0,0E0,0E0,0E0,0E0,0E0,0E0,0E0,0E0],"parents":[2147483647,0,0,1,1,2,2,3,3,4,4,5,5,6,6],"right_children":[2,4,6,8,10,12,14,-1,-1,-1,-1,-1,-1,-1,-1],"split_conditions":[4.2E0,2.2E0,6.4E0,1.2E0,3.2E0,5.7E0,8.3E0,-2.7850157E-2,-1.9418983E-2,-9.480483E-3,-2.7361892E-3,3.1197553E-3,1.1907024E-2,1.9573588E-2,3.3084635E-2],"split_indices":[0,0,0,0,0,0,0,0,0,0,0,0,0,0,0],"split_type":[0,0,0,0,0,0,0,0,0,0,0,0,0,0,0],"sum_hessian":[9.1E2,4.67E2,4.43E2,2.51E2,2.16E2,1.94E2,2.49E2,7.5E1,1.76E2,1.22E2,9.4E1,1.09E2,8.5E1,1.98E2,5.1E1],"tree_param":{"num_deleted":"0","num_feature":"1","num_nodes":"15","size_leaf_vector":"1"}},{"base_weights":[6.972003E-5,-2.9961577E-1,2.8314137E-1,-4.2506966E-1,-1.4783625E-1,1.1838777E-1,4.2699197E-1,-2.6805714E-2,-1.8884065E-2,-1.1221968E-2,-5.3644064E-3,1.4858625E-3,1.0181308E-2,1.8599821E-2,3.1462215E-2],"categories":[],"categories_nodes":[],"categories_segments":[],"categories_sizes":[],"default_left":[0,0,0,0,0,0,0,0,0,0,0,0,0,0,0],"id":25,"left_children":[1,3,5,7,9,11,13,-1,-1,-1,-1,-1,-1,-1,-1],"loss_changes":[7.736721E1,8.372467E0,1.1064705E1,1.0709801E0,6.0335493E-1,1.6567378E0,2.5466652E0,0E0,0E0,0E0,0E0,0E0,0E0,0E0,0E0],"parents":[2147483647,0,0,1,1,2,2,3,3,4,4,5,5,6,6],"right_children":[2,4,6,8,10,12,14,-1,-1,-1,-1,-1,-1,-1,-1],"split_conditions":[4E0,2.1E0,6.4E0,1.1E0,2.8E0,5.2E0,8.3E0,-2.6805714E-2,-1.8884065E-2,-1.1221968E-2,-5.3644064E-3,1.4858625E-3,1.0181308E-2,1.8599821E-2,3.1462215E-2],"split_indices":[0,0,0,0,0,0,0,0,0,0,0,0,0,0,0],"split_type":[0,0,0,0,0,0,0,0,0,0,0,0,0,0,0],"sum_hessian":[9.1E2,4.42E2,4.68E2,2.41E2,2.01E2,2.19E2,2.49E2,6.9E1,1.72E2,6.8E1,1.33E2,1.08E2,1.11E2,1.98E2,5.1E1],"tree_param":{"num_deleted":"0","num_feature":"1","num_nodes":"15","size_leaf_vector":"1"}},{"base_weights":[6.566731E-5,-2.8668082E-1,2.6737157E-1,-4.04005E-1,-1.4256458E-1,1.1093595E-1,4.0584266E-1,-2.5184592E-2,-1.7810967E-2,-1.06689995E-2,-5.20883E-3,2.2232411E-3,1.0815448E-2,1.7703768E-2,3.0044708E-2],"categories":[],"categories_nodes":[],"categories_segments":[],"categories_sizes":[],"default_left":[0,0,0,0,0,0,0,0,0,0,0,0,0,0,0],"id":26,"left_children":[1,3,5,7,9,11,13,-1,-1,-1,-1,-1,-1,-1,-1],"loss_changes":[6.9903915E1,7.382065E0,1.0179352E1,9.733696E-1,5.18744E-1,1.5523324E0,2.3115616E0,0E0,0E0,0E0,0E0,0E0,0E0,0E0,0E0],"parents":[2147483647,0,0,1,1,2,2,3,3,4,4,5,5,6,6],"right_children":[2,4,6,8,10,12,14,-1,-1,-1,-1,-1,-1,-1,-1],"split_conditions":[3.9E0,2.1E0,6.4E0,1.2E0,2.8E0,5.7E0,8.4E0,-2.5184592E-2,-1.7810967E-2,-1.06689995E-2,-5.20883E-3,2.2232411E-3,1.0815448E-2,1.7703768E-2,3.0044708E-2],"split_indices":[0,0,0,0,0,0,0,0,0,0,0,0,0,0,0],"split_type":[0,0,0,0,0,0,0,0,0,0,0,0,0,0,0],"sum_hessian":[9.1E2,4.39E2,4.71E2,2.41E2,1.98E2,2.22E2,2.49E2,7.5E1,1.66E2,6.8E1,1.3E2,1.37E2,8.5E1,1.99E2,5E1],"tree_param":{"num_deleted":"0","num_feature":"1","num_nodes":"15","size_leaf_vector":"1"}},{"base_weights":[6.447946E-5,-2.2493742E-1,3.0805394E-1,-3.6458904E-1,-6.874509E-2,2.2339739E-1,4.631705E-1,-2.135357E-2,-1.3682373E-2,-2.7815213E-3,-2.5803203E-2,5.507183E-3,1.337289E-2,2.5361622E-2,-3.9819847E-3],"categories":[],"categories_nodes":[],"categories_segments":[],"categories_sizes":[],"default_left":[0,0,0,0,0,0,0,0,0,0,0,0,0,0,0],"id":27,"left_children":[1,3,5,7,9,11,13,-1,-1,-1,-1,-1,-1,-1,-1],"loss_changes":[6.3199963E1,1.1470125E1,4.9522057E0,1.4628029E0,1.4379004E0,1.223032E0,3.269226E0,0E0,0E0,0E0,0E0,0E0,0E0,0E0,0E0],"parents":[2147483647,0,0,1,1,2,2,3,3,4,4,5,5,6,6],"right_children":[2,4,6,8,10,12,14,-1,-1,-1,-1,-1,-1,-1,-1],"split_conditions":[5E0,2.5E0,7.4E0,1.7E0,4.9E0,6E0,1.13E1,-2.135357E-2,-1.3682373E-2,-2.7815213E-3,-2.5803203E-2,5.507183E-3,1.337289E-2,2.5361622E-2,-3.9819847E-3],"split_indices":[0,0,0,0,0,0,0,0,0,0,0,0,0,0,0],"split_type":[0,0,0,0,0,0,0,0,0,0,0,0,0,0,0],"sum_hessian":[9.1E2,5.26E2,3.84E2,2.77E2,2.49E2,2.5E2,1.34E2,1.62E2,1.15E2,2.43E2,6E0,7.1E1,1.79E2,1.24E2,1E1],"tree_param":{"num_deleted":"0","num_feature":"1","num_nodes":"15","size_leaf_vector":"1"}},{"base_weights":[3.5623623E-5,-2.6001844E-1,2.424588E-1,-3.6522135E-1,-1.3077658E-1,1.01560876E-1,3.6716995E-1,-2.7751727E-2,-1.7039785E-2,-8.249089E-3,-3.0462407E-3,1.3678034E-3,8.742945E-3,1.6622633E-2,3.2674298E-2],"categories":[],"categories_nodes":[],"categories_segments":[],"categories_sizes":[],"default_left":[0,0,0,0,0,0,0,0,0,0,0,0,0,0,0],"id":28,"left_children":[1,3,5,7,9,11,13,-1,-1,-1,-1,-1,-1,-1,-1],"loss_changes":[5.749534E1,5.9347496E0,8.256479E0,9.328346E-1,4.6541786E-1,1.2081282E0,2.2677727E0,0E0,0E0,0E0,0E0,0E0,0E0,0E0,0E0],"parents":[2147483647,0,0,1,1,2,2,3,3,4,4,5,5,6,6],"right_children":[2,4,6,8,10,12,14,-1,-1,-1,-1,-1,-1,-1,-1],"split_conditions":[3.9E0,2.1E0,6.4E0,8E-1,3.2E0,5.2E0,9E0,-2.7751727E-2,-1.7039785E-2,-8.249089E-3,-3.0462407E-3,1.3678034E-3,8.742945E-3,1.6622633E-2,3.2674298E-2],"split_indices":[0,0,0,0,0,0,0,0,0,0,0,0,0,0,0],"split_type":[0,0,0,0,0,0,0,0,0,0,0,0,0,0,0],"sum_hessian":[9.1E2,4.39E2,4.71E2,2.41E2,1.98E2,2.22E2,2.49E2,2.5E1,2.16E2,1.32E2,6.6E1,1.11E2,1.11E2,2.24E2,2.5E1],"tree_param":{"num_deleted":"0","num_feature":"1","num_nodes":"15","size_leaf_vector":"1"}},{"base_weights":[3.749047E-5,-2.4714498E-1,2.3046175E-1,-3.4714538E-1,-1.24294534E-1,1.2291149E-1,3.7867317E-1,-2.6417509E-2,-1.6191723E-2,-7.839738E-3,-2.8962004E-3,2.0134721E-3,1.0233144E-2,2.0109965E-2,-8.003214E-3],"categories":[],"categories_nodes":[],"categories_segments":[],"categories_sizes":[],"default_left":[0,0,0,0,0,0,0,0,0,0,0,0,0,0,0],"id":29,"left_children":[1,3,5,7,9,11,13,-1,-1,-1,-1,-1,-1,-1,-1],"loss_changes":[5.194464E1,5.3622932E0,7.4772186E0,8.511219E-1,4.2017245E-1,1.8496866E0,2.5739098E0,0E0,0E0,0E0,0E0,0E0,0E0,0E0,0E0],"parents":[2147483647,0,0,1,1,2,2,3,3,4,4,5,5,6,6],"right_children":[2,4,6,8,10,12,14,-1,-1,-1,-1,-1,-1,-1,-1],"split_conditions":[3.9E0,2.1E0,7E0,8E-1,3.2E0,5.7E0,1.18E1,-2.6417509E-2,-1.6191723E-2,-7.839738E-3,-2.8962004E-3,2.0134721E-3,1.0233144E-2,2.0109965E-2,-8.003214E-3],"split_indices":[0,0,0,0,0,0,0,0,0,0,0,0,0,0,0],"split_type":[0,0,0,0,0,0,0,0,0,0,0,0,0,0,0],"sum_hessian":[9.1E2,4.39E2,4.71E2,2.41E2,1.98E2,2.74E2,1.97E2,2.5E1,2.16E2,1.32E2,6.6E1,1.37E2,1.37E2,1.89E2,8E0],"tree_param":{"num_deleted":"0","num_feature":"1","num_nodes":"15","size_leaf_vector":"1"}},{"base_weights":[3.7983402E-6,-2.2102186E-1,2.3297678E-1,-3.255428E-1,-9.862416E-2,1.3036902E-1,3.5980073E-1,-1.9818442E-2,-1.3527227E-2,-7.1680523E-3,-1.9831758E-3,2.4361887E-3,9.7251935E-3,1.924992E-2,-5.1779686E-3],"categories":[],"categories_nodes":[],"categories_segments":[],"categories_sizes":[],"default_left":[0,0,0,0,0,0,0,0,0,0,0,0,0,0,0],"id":30,"left_children":[1,3,5,7,9,11,13,-1,-1,-1,-1,-1,-1,-1,-1],"loss_changes":[4.6961624E1,5.955076E0,5.730919E0,8.743839E-1,5.666981E-1,1.2838902E0,2.351637E0,0E0,0E0,0E0,0E0,0E0,0E0,0E0,0E0],"parents":[2147483647,0,0,1,1,2,2,3,3,4,4,5,5,6,6],"right_children":[2,4,6,8,10,12,14,-1,-1,-1,-1,-1,-1,-1,-1],"split_conditions":[4.2E0,2.2E0,7E0,1.4E0,3.2E0,5.7E0,1.13E1,-1.9818442E-2,-1.3527227E-2,-7.1680523E-3,-1.9831758E-3,2.4361887E-3,9.7251935E-3,1.924992E-2,-5.1779686E-3],"split_indices":[0,0,0,0,0,0,0,0,0,0,0,0,0,0,0],"split_type":[0,0,0,0,0,0,0,0,0,0,0,0,0,0,0],"sum_hessian":[9.1E2,4.67E2,4.43E2,2.51E2,2.16E2,2.46E2,1.97E2,1.07E2,1.44E2,1.22E2,9.4E1,1.09E2,1.37E2,1.87E2,1E1],"tree_param":{"num_deleted":"0","num_feature":"1","num_nodes":"15","size_leaf_vector":"1"}},{"base_weights":[-1.4220059E-5,-2.2337742E-1,2.0820574E-1,-3.1371117E-1,-1.1240182E-1,8.674199E-2,3.157186E-1,-2.4194626E-2,-1.4593757E-2,-8.529783E-3,-4.0446036E-3,1.1347713E-3,7.500704E-3,1.4060152E-2,3.0113397E-2],"categories":[],"categories_nodes":[],"categories_segments":[],"categories_sizes":[],"default_left":[0,0,0,0,0,0,0,0,0,0,0,0,0,0,0],"id":31,"left_children":[1,3,5,7,9,11,13,-1,-1,-1,-1,-1,-1,-1,-1],"loss_changes":[4.2415916E1,4.3756695E0,6.136423E0,7.5805664E-1,3.5110116E-1,9.0027165E-1,2.3032417E0,0E0,0E0,0E0,0E0,0E0,0E0,0E0,0E0],"parents":[2147483647,0,0,1,1,2,2,3,3,4,4,5,5,6,6],"right_children":[2,4,6,8,10,12,14,-1,-1,-1,-1,-1,-1,-1,-1],"split_conditions":[3.9E0,2.1E0,6.4E0,8E-1,2.8E0,5.2E0,9E0,-2.4194626E-2,-1.4593757E-2,-8.529783E-3,-4.0446036E-3,1.1347713E-3,7.500704E-3,1.4060152E-2,3.0113397E-2],"split_indices":[0,0,0,0,0,0,0,0,0,0,0,0,0,0,0],"split_type":[0,0,0,0,0,0,0,0,0,0,0,0,0,0,0],"sum_hessian":[9.1E2,4.39E2,4.71E2,2.41E2,1.98E2,2.22E2,2.49E2,2.5E1,2.16E2,6.8E1,1.3E2,1.11E2,1.11E2,2.24E2,2.5E1],"tree_param":{"num_deleted":"0","num_feature":"1","num_nodes":"15","size_leaf_vector":"1"}},{"base_weights":[-1.1952661E-5,-1.9973856E-1,2.1051072E-1,-2.9415032E-1,-8.917865E-2,1.5650651E-1,4.1543436E-1,-1.7151332E-2,-1.1235512E-2,-6.5062284E-3,-1.7612873E-3,2.8157223E-3,1.0733096E-2,2.4151506E-2,-6.3113994E-3],"categories":[],"categories_nodes":[],"categories_segments":[],"categories_sizes":[],"default_left":[0,0,0,0,0,0,0,0,0,0,0,0,0,0,0],"id":32,"left_children":[1,3,5,7,9,11,13,-1,-1,-1,-1,-1,-1,-1,-1],"loss_changes":[3.8346848E1,4.8588257E0,4.8486137E0,7.7820015E-1,4.7480202E-1,2.0447397E0,3.4294653E0,0E0,0E0,0E0,0E0,0E0,0E0,0E0,0E0],"parents":[2147483647,0,0,1,1,2,2,3,3,4,4,5,5,6,6],"right_children":[2,4,6,8,10,12,14,-1,-1,-1,-1,-1,-1,-1,-1],"split_conditions":[4.2E0,2.2E0,7.7E0,1.6E0,3.2E0,6E0,1.13E1,-1.7151332E-2,-1.1235512E-2,-6.5062284E-3,-1.7612873E-3,2.8157223E-3,1.0733096E-2,2.4151506E-2,-6.3113994E-3],"split_indices":[0,0,0,0,0,0,0,0,0,0,0,0,0,0,0],"split_type":[0,0,0,0,0,0,0,0,0,0,0,0,0,0,0],"sum_hessian":[9.1E2,4.67E2,4.43E2,2.51E2,2.16E2,3.52E2,9.1E1,1.45E2,1.06E2,1.22E2,9.4E1,1.3E2,2.22E2,8.1E1,1E1],"tree_param":{"num_deleted":"0","num_feature":"1","num_nodes":"15","size_leaf_vector":"1"}},{"base_weights":[-1.7151548E-5,-2.0189822E-1,1.881771E-1,-3.0953744E-1,-1.2404796E-1,9.937845E-2,3.1055814E-1,-2.2206841E-2,-1.4279035E-2,-8.796028E-3,-3.6406156E-3,1.6278044E-3,8.274035E-3,1.6583173E-2,-8.475251E-3],"categories":[],"categories_nodes":[],"categories_segments":[],"categories_sizes":[],"default_left":[0,0,0,0,0,0,0,0,0,0,0,0,0,0,0],"id":33,"left_children":[1,3,5,7,9,11,13,-1,-1,-1,-1,-1,-1,-1,-1],"loss_changes":[3.4649483E1,3.6486893E0,5.0984898E0,4.6648216E-1,6.702266E-1,1.2093167E0,2.0623322E0,0E0,0E0,0E0,0E0,0E0,0E0,0E0,0E0],"parents":[2147483647,0,0,1,1,2,2,3,3,4,4,5,5,6,6],"right_children":[2,4,6,8,10,12,14,-1,-1,-1,-1,-1,-1,-1,-1],"split_conditions":[3.9E0,1.8E0,7E0,8E-1,2.8E0,5.7E0,1.18E1,-2.2206841E-2,-1.4279035E-2,-8.796028E-3,-3.6406156E-3,1.6278044E-3,8.274035E-3,1.6583173E-2,-8.475251E-3],"split_indices":[0,0,0,0,0,0,0,0,0,0,0,0,0,0,0],"split_type":[0,0,0,0,0,0,0,0,0,0,0,0,0,0,0],"sum_hessian":[9.1E2,4.39E2,4.71E2,1.83E2,2.56E2,2.74E2,1.97E2,2.5E1,1.58E2,1.26E2,1.3E2,1.37E2,1.37E2,1.89E2,8E0],"tree_param":{"num_deleted":"0","num_feature":"1","num_nodes":"15","size_leaf_vector":"1"}},{"base_weights":[-5.026366E-5,-1.8054096E-1,1.901968E-1,-2.6107013E-1,-7.413061E-2,1.4002602E-1,3.8063255E-1,-1.5877848E-2,-1.0318771E-2,-5.533179E-3,-1.5716758E-3,7.587734E-3,-1.6256547E-2,2.2139605E-2,-5.8670803E-3],"categories":[],"categories_nodes":[],"categories_segments":[],"categories_sizes":[],"default_left":[0,0,0,0,0,0,0,0,0,0,0,0,0,0,0],"id":34,"left_children":[1,3,5,7,9,11,13,-1,-1,-1,-1,-1,-1,-1,-1],"loss_changes":[3.13161E1,3.991002E0,4.188814E0,7.56279E-1,3.1317127E-1,1.9751897E0,2.8997107E0,0E0,0E0,0E0,0E0,0E0,0E0,0E0,0E0],"parents":[2147483647,0,0,1,1,2,2,3,3,4,4,5,5,6,6],"right_children":[2,4,6,8,10,12,14,-1,-1,-1,-1,-1,-1,-1,-1],"split_conditions":[4.2E0,2.3E0,7.7E0,1.5E0,3.2E0,7.6E0,1.13E1,-1.5877848E-2,-1.0318771E-2,-5.533179E-3,-1.5716758E-3,7.587734E-3,-1.6256547E-2,2.2139605E-2,-5.8670803E-3],"split_indices":[0,0,0,0,0,0,0,0,0,0,0,0,0,0,0],"split_type":[0,0,0,0,0,0,0,0,0,0,0,0,0,0,0],"sum_hessian":[9.1E2,4.67E2,4.43E2,2.65E2,2.02E2,3.52E2,9.1E1,1.28E2,1.37E2,1.08E2,9.4E1,3.44E2,8E0,8.1E1,1E1],"tree_param":{"num_deleted":"0","num_feature":"1","num_nodes":"15","size_leaf_vector":"1"}},{"base_weights":[-7.593105E-5,-1.474105E-1,2.1282864E-1,-2.4422641E-1,-4.411953E-2,1.8754497E-1,5.430552E-1,-1.4480091E-2,-8.918039E-3,-4.3689455E-3,-7.521008E-5,9.770874E-3,-2.6917255E-2,4.797351E-2,-5.6003984E-3],"categories":[],"categories_nodes":[],"categories_segments":[],"categories_sizes":[],"default_left":[0,0,0,0,0,0,0,0,0,0,0,0,0,0,0],"id":35,"left_children":[1,3,5,7,9,11,13,-1,-1,-1,-1,-1,-1,-1,-1],"loss_changes":[2.8607805E1,5.3793364E0,3.012457E0,7.791996E-1,4.828689E-1,2.093875E0,7.199698E0,0E0,0E0,0E0,0E0,0E0,0E0,0E0,0E0],"parents":[2147483647,0,0,1,1,2,2,3,3,4,4,5,5,6,6],"right_children":[2,4,6,8,10,12,14,-1,-1,-1,-1,-1,-1,-1,-1],"split_conditions":[5.1E0,2.5E0,9E0,1.7E0,3.6E0,8.7E0,1.13E1,-1.4480091E-2,-8.918039E-3,-4.3689455E-3,-7.521008E-5,9.770874E-3,-2.6917255E-2,4.797351E-2,-5.6003984E-3],"split_indices":[0,0,0,0,0,0,0,0,0,0,0,0,0,0,0],"split_type":[0,0,0,0,0,0,0,0,0,0,0,0,0,0,0],"sum_hessian":[9.1E2,5.38E2,3.72E2,2.77E2,2.61E2,3.47E2,2.5E1,1.62E2,1.15E2,1.29E2,1.32E2,3.44E2,3E0,1.5E1,1E1],"tree_param":{"num_deleted":"0","num_feature":"1","num_nodes":"15","size_leaf_vector":"1"}},{"base_weights":[-7.501428E-5,-1.4009164E-1,2.0225485E-1,-2.3209924E-1,-4.193058E-2,1.7811845E-1,5.175322E-1,-1.6124863E-2,-1.0035593E-2,-4.1521806E-3,-7.148184E-5,9.283747E-3,-2.590786E-2,4.5724757E-2,-5.345832E-3],"categories":[],"categories_nodes":[],"categories_segments":[],"categories_sizes":[],"default_left":[0,0,0,0,0,0,0,0,0,0,0,0,0,0,0],"id":36,"left_children":[1,3,5,7,9,11,13,-1,-1,-1,-1,-1,-1,-1,-1],"loss_changes":[2.583655E1,4.85828E0,2.7462206E0,7.2405624E-1,4.3614182E-1,1.9271727E0,6.542733E0,0E0,0E0,0E0,0E0,0E0,0E0,0E0,0E0],"parents":[2147483647,0,0,1,1,2,2,3,3,4,4,5,5,6,6],"right_children":[2,4,6,8,10,12,14,-1,-1,-1,-1,-1,-1,-1,-1],"split_conditions":[5.1E0,2.5E0,9E0,1.1E0,3.6E0,8.7E0,1.13E1,-1.6124863E-2,-1.0035593E-2,-4.1521806E-3,-7.148184E-5,9.283747E-3,-2.590786E-2,4.5724757E-2,-5.345832E-3],"split_indices":[0,0,0,0,0,0,0,0,0,0,0,0,0,0,0],"split_type":[0,0,0,0,0,0,0,0,0,0,0,0,0,0,0],"sum_hessian":[9.1E2,5.38E2,3.72E2,2.77E2,2.61E2,3.47E2,2.5E1,6.9E1,2.08E2,1.29E2,1.32E2,3.44E2,3E0,1.5E1,1E1],"tree_param":{"num_deleted":"0","num_feature":"1","num_nodes":"15","size_leaf_vector":"1"}},{"base_weights":[-7.854436E-5,-1.3314341E-1,1.9220576E-1,-2.2058836E-1,-3.985015E-2,1.5874578E-1,4.0035018E-1,-1.3132942E-2,-7.978524E-3,-3.946169E-3,-6.7932444E-5,8.62049E-3,-4.867415E-3,2.6268883E-2,-5.1028407E-3],"categories":[],"categories_nodes":[],"categories_segments":[],"categories_sizes":[],"default_left":[0,0,0,0,0,0,0,0,0,0,0,0,0,0,0],"id":37,"left_children":[1,3,5,7,9,11,13,-1,-1,-1,-1,-1,-1,-1,-1],"loss_changes":[2.3334698E1,4.388385E0,2.5342054E0,6.7172813E-1,3.9393735E-1,1.1470499E0,3.2571669E0,0E0,0E0,0E0,0E0,0E0,0E0,0E0,0E0],"parents":[2147483647,0,0,1,1,2,2,3,3,4,4,5,5,6,6],"right_children":[2,4,6,8,10,12,14,-1,-1,-1,-1,-1,-1,-1,-1],"split_conditions":[5.1E0,2.5E0,8.4E0,1.7E0,3.6E0,8.1E0,1.13E1,-1.3132942E-2,-7.978524E-3,-3.946169E-3,-6.7932444E-5,8.62049E-3,-4.867415E-3,2.6268883E-2,-5.1028407E-3],"split_indices":[0,0,0,0,0,0,0,0,0,0,0,0,0,0,0],"split_type":[0,0,0,0,0,0,0,0,0,0,0,0,0,0,0],"sum_hessian":[9.1E2,5.38E2,3.72E2,2.77E2,2.61E2,3.22E2,5E1,1.62E2,1.15E2,1.29E2,1.32E2,3.06E2,1.6E1,4E1,1E1],"tree_param":{"num_deleted":"0","num_feature":"1","num_nodes":"15","size_leaf_vector":"1"}},{"base_weights":[-7.484482E-5,-1.2324687E-1,1.8792477E-1,-2.0963487E-1,-3.5147924E-2,1.6476317E-1,4.8001608E-1,-1.8273063E-2,-9.6396245E-3,-3.750377E-3,4.1534204E-5,8.623744E-3,-2.5921404E-2,4.2350046E-2,-4.8708916E-3],"categories":[],"categories_nodes":[],"categories_segments":[],"categories_sizes":[],"default_left":[0,0,0,0,0,0,0,0,0,0,0,0,0,0,0],"id":38,"left_children":[1,3,5,7,9,11,13,-1,-1,-1,-1,-1,-1,-1,-1],"loss_changes":[2.1118544E1,4.186123E0,2.363185E0,6.5914917E-1,3.9300397E-1,1.8596573E0,5.5921597E0,0E0,0E0,0E0,0E0,0E0,0E0,0E0,0E0],"parents":[2147483647,0,0,1,1,2,2,3,3,4,4,5,5,6,6],"right_children":[2,4,6,8,10,12,14,-1,-1,-1,-1,-1,-1,-1,-1],"split_conditions":[5.2E0,2.5E0,9E0,8E-1,3.6E0,8.7E0,1.13E1,-1.8273063E-2,-9.6396245E-3,-3.750377E-3,4.1534204E-5,8.623744E-3,-2.5921404E-2,4.2350046E-2,-4.8708916E-3],"split_indices":[0,0,0,0,0,0,0,0,0,0,0,0,0,0,0],"split_type":[0,0,0,0,0,0,0,0,0,0,0,0,0,0,0],"sum_hessian":[9.1E2,5.5E2,3.6E2,2.77E2,2.73E2,3.35E2,2.5E1,2.5E1,2.52E2,1.29E2,1.44E2,3.32E2,3E0,1.5E1,1E1],"tree_param":{"num_deleted":"0","num_feature":"1","num_nodes":"15","size_leaf_vector":"1"}},{"base_weights":[-8.3695944E-5,-1.1714192E-1,1.7858435E-1,-1.9925353E-1,-3.3404063E-2,1.3226968E-1,3.125667E-1,-1.7394552E-2,-9.159549E-3,-4.1296585E-3,-3.205551E-4,7.4044527E-3,-1.7147321E-2,1.8157942E-2,-4.649488E-3],"categories":[],"categories_nodes":[],"categories_segments":[],"categories_sizes":[],"default_left":[0,0,0,0,0,0,0,0,0,0,0,0,0,0,0],"id":39,"left_children":[1,3,5,7,9,11,13,-1,-1,-1,-1,-1,-1,-1,-1],"loss_changes":[1.9074087E1,3.7819376E0,2.1987877E0,5.999937E-1,3.6327663E-1,2.0805435E0,1.921423E0,0E0,0E0,0E0,0E0,0E0,0E0,0E0,0E0],"parents":[2147483647,0,0,1,1,2,2,3,3,4,4,5,5,6,6],"right_children":[2,4,6,8,10,12,14,-1,-1,-1,-1,-1,-1,-1,-1],"split_conditions":[5.2E0,2.5E0,7.7E0,8E-1,3.2E0,7.6E0,1.13E1,-1.7394552E-2,-9.159549E-3,-4.1296585E-3,-3.205551E-4,7.4044527E-3,-1.7147321E-2,1.8157942E-2,-4.649488E-3],"split_indices":[0,0,0,0,0,0,0,0,0,0,0,0,0,0,0],"split_type":[0,0,0,0,0,0,0,0,0,0,0,0,0,0,0],"sum_hessian":[9.1E2,5.5E2,3.6E2,2.77E2,2.73E2,2.69E2,9.1E1,2.5E1,2.52E2,9.6E1,1.77E2,2.61E2,8E0,8.1E1,1E1],"tree_param":{"num_deleted":"0","num_feature":"1","num_nodes":"15","size_leaf_vector":"1"}},{"base_weights":[-1.0942857E-4,-1.1134106E-1,1.6966547E-1,-1.9714487E-1,-3.889473E-2,1.4705883E-1,4.4387135E-1,-1.6558275E-2,-9.0463E-3,-4.302437E-3,-3.0461367E-4,7.7525014E-3,-3.9449137E-2,3.8120355E-2,-4.438151E-3],"categories":[],"categories_nodes":[],"categories_segments":[],"categories_sizes":[],"default_left":[0,0,0,0,0,0,0,0,0,0,0,0,0,0,0],"id":40,"left_children":[1,3,5,7,9,11,13,-1,-1,-1,-1,-1,-1,-1,-1],"loss_changes":[1.7222523E1,3.4174418E0,2.1725187E0,4.8784733E-1,4.6350598E-1,2.62816E0,4.6485763E0,0E0,0E0,0E0,0E0,0E0,0E0,0E0,0E0],"parents":[2147483647,0,0,1,1,2,2,3,3,4,4,5,5,6,6],"right_children":[2,4,6,8,10,12,14,-1,-1,-1,-1,-1,-1,-1,-1],"split_conditions":[5.2E0,2.2E0,8.9E0,8E-1,3.2E0,8.7E0,1.13E1,-1.6558275E-2,-9.0463E-3,-4.302437E-3,-3.0461367E-4,7.7525014E-3,-3.9449137E-2,3.8120355E-2,-4.438151E-3],"split_indices":[0,0,0,0,0,0,0,0,0,0,0,0,0,0,0],"split_type":[0,0,0,0,0,0,0,0,0,0,0,0,0,0,0],"sum_hessian":[9.1E2,5.5E2,3.6E2,2.51E2,2.99E2,3.34E2,2.6E1,2.5E1,2.26E2,1.22E2,1.77E2,3.32E2,2E0,1.6E1,1E1],"tree_param":{"num_deleted":"0","num_feature":"1","num_nodes":"15","size_leaf_vector":"1"}},{"base_weights":[-1.3490416E-4,-9.98751E-2,1.7165682E-1,-1.8014073E-1,-2.5162699E-2,1.4956276E-1,4.2848378E-1,-1.09096235E-2,-6.255927E-3,-7.407599E-4,-1.4783646E-2,7.878519E-3,-2.512055E-2,3.7726846E-2,-4.2364164E-3],"categories":[],"categories_nodes":[],"categories_segments":[],"categories_sizes":[],"default_left":[0,0,0,0,0,0,0,0,0,0,0,0,0,0,0],"id":41,"left_children":[1,3,5,7,9,11,13,-1,-1,-1,-1,-1,-1,-1,-1],"loss_changes":[1.562671E1,3.4556427E0,1.8368225E0,5.547457E-1,8.353511E-1,1.6975951E0,4.4146247E0,0E0,0E0,0E0,0E0,0E0,0E0,0E0,0E0],"parents":[2147483647,0,0,1,1,2,2,3,3,4,4,5,5,6,6],"right_children":[2,4,6,8,10,12,14,-1,-1,-1,-1,-1,-1,-1,-1],"split_conditions":[5.7E0,2.5E0,9E0,1.7E0,5.5E0,8.7E0,1.13E1,-1.09096235E-2,-6.255927E-3,-7.407599E-4,-1.4783646E-2,7.878519E-3,-2.512055E-2,3.7726846E-2,-4.2364164E-3],"split_indices":[0,0,0,0,0,0,0,0,0,0,0,0,0,0,0],"split_type":[0,0,0,0,0,0,0,0,0,0,0,0,0,0,0],"sum_hessian":[9.1E2,5.76E2,3.34E2,2.77E2,2.99E2,3.09E2,2.5E1,1.62E2,1.15E2,2.89E2,1E1,3.06E2,3E0,1.5E1,1E1],"tree_param":{"num_deleted":"0","num_feature":"1","num_nodes":"15","size_leaf_vector":"1"}},{"base_weights":[-1.4620477E-4,-1.2937248E-1,1.2031928E-1,-2.0029864E-1,-7.808927E-2,6.9703035E-2,2.461561E-1,-1.5237703E-2,-9.097907E-3,-5.400669E-3,-2.4241384E-3,9.681615E-4,5.6891316E-3,3.439093E-2,9.46851E-3],"categories":[],"categories_nodes":[],"categories_segments":[],"categories_sizes":[],"default_left":[0,0,0,0,0,0,0,0,0,0,0,0,0,0,0],"id":42,"left_children":[1,3,5,7,9,11,13,-1,-1,-1,-1,-1,-1,-1,-1],"loss_changes":[1.4197382E1,1.5847807E0,2.9891925E0,2.970481E-1,2.2245193E-1,7.4780464E-1,3.2555742E0,0E0,0E0,0E0,0E0,0E0,0E0,0E0,0E0],"parents":[2147483647,0,0,1,1,2,2,3,3,4,4,5,5,6,6],"right_children":[2,4,6,8,10,12,14,-1,-1,-1,-1,-1,-1,-1,-1],"split_conditions":[3.9E0,1.8E0,7.4E0,8E-1,2.8E0,6E0,7.5E0,-1.5237703E-2,-9.097907E-3,-5.400669E-3,-2.4241384E-3,9.681615E-4,5.6891316E-3,3.439093E-2,9.46851E-3],"split_indices":[0,0,0,0,0,0,0,0,0,0,0,0,0,0,0],"split_type":[0,0,0,0,0,0,0,0,0,0,0,0,0,0,0],"sum_hessian":[9.1E2,4.39E2,4.71E2,1.83E2,2.56E2,3.37E2,1.34E2,2.5E1,1.58E2,1.26E2,1.3E2,1.58E2,1.79E2,1.4E1,1.2E2],"tree_param":{"num_deleted":"0","num_feature":"1","num_nodes":"15","size_leaf_vector":"1"}},{"base_weights":[-1.1876268E-4,-1.2217824E-1,1.15174346E-1,-1.9041595E-1,-7.341702E-2,5.8630947E-2,2.170754E-1,-1.4505121E-2,-8.645872E-3,-5.1327622E-3,-2.257914E-3,9.4258937E-4,5.008209E-3,1.1688213E-2,-9.888942E-3],"categories":[],"categories_nodes":[],"categories_segments":[],"categories_sizes":[],"default_left":[0,0,0,0,0,0,0,0,0,0,0,0,0,0,0],"id":43,"left_children":[1,3,5,7,9,11,13,-1,-1,-1,-1,-1,-1,-1,-1],"loss_changes":[1.2834226E1,1.4600377E0,2.6895714E0,2.7079916E-1,2.1018541E-1,4.9871528E-1,1.2024469E0,0E0,0E0,0E0,0E0,0E0,0E0,0E0,0E0],"parents":[2147483647,0,0,1,1,2,2,3,3,4,4,5,5,6,6],"right_children":[2,4,6,8,10,12,14,-1,-1,-1,-1,-1,-1,-1,-1],"split_conditions":[4E0,1.8E0,7.2E0,8E-1,2.8E0,6E0,1.35E1,-1.4505121E-2,-8.645872E-3,-5.1327622E-3,-2.257914E-3,9.4258937E-4,5.008209E-3,1.1688213E-2,-9.888942E-3],"split_indices":[0,0,0,0,0,0,0,0,0,0,0,0,0,0,0],"split_type":[0,0,0,0,0,0,0,0,0,0,0,0,0,0,0],"sum_hessian":[9.1E2,4.42E2,4.68E2,1.83E2,2.59E2,3.02E2,1.66E2,2.5E1,1.58E2,1.26E2,1.33E2,1.55E2,1.47E2,1.6E2,6E0],"tree_param":{"num_deleted":"0","num_feature":"1","num_nodes":"15","size_leaf_vector":"1"}},{"base_weights":[-1.3785632E-4,-9.654136E-2,1.3182262E-1,-1.6400354E-1,-3.912042E-2,1.1212189E-1,3.888871E-1,-1.2595869E-2,-7.2936355E-3,-1.3597641E-3,-2.552687E-2,5.956846E-3,-3.800204E-2,3.3740308E-2,-4.4170558E-3],"categories":[],"categories_nodes":[],"categories_segments":[],"categories_sizes":[],"default_left":[0,0,0,0,0,0,0,0,0,0,0,0,0,0,0],"id":44,"left_children":[1,3,5,7,9,11,13,-1,-1,-1,-1,-1,-1,-1,-1],"loss_changes":[1.160197E1,2.035046E0,1.9061756E0,3.4898806E-1,1.593926E0,2.2870002E0,3.7437258E0,0E0,0E0,0E0,0E0,0E0,0E0,0E0,0E0],"parents":[2147483647,0,0,1,1,2,2,3,3,4,4,5,5,6,6],"right_children":[2,4,6,8,10,12,14,-1,-1,-1,-1,-1,-1,-1,-1],"split_conditions":[5E0,2.1E0,8.9E0,1E0,4.9E0,8.7E0,1.13E1,-1.2595869E-2,-7.2936355E-3,-1.3597641E-3,-2.552687E-2,5.956846E-3,-3.800204E-2,3.3740308E-2,-4.4170558E-3],"split_indices":[0,0,0,0,0,0,0,0,0,0,0,0,0,0,0],"split_type":[0,0,0,0,0,0,0,0,0,0,0,0,0,0,0],"sum_hessian":[9.1E2,5.26E2,3.84E2,2.41E2,2.85E2,3.58E2,2.6E1,3.9E1,2.02E2,2.79E2,6E0,3.56E2,2E0,1.6E1,1E1],"tree_param":{"num_deleted":"0","num_feature":"1","num_nodes":"15","size_leaf_vector":"1"}},{"base_weights":[-1.8531771E-4,-1.1183436E-1,1.03894696E-1,-1.7935695E-1,-7.184151E-2,6.8810485E-2,2.480598E-1,-1.3202188E-2,-8.105089E-3,-4.86694E-3,-2.12435E-3,3.955508E-3,-1.828498E-2,1.4023324E-2,-9.275835E-3],"categories":[],"categories_nodes":[],"categories_segments":[],"categories_sizes":[],"default_left":[0,0,0,0,0,0,0,0,0,0,0,0,0,0,0],"id":45,"left_children":[1,3,5,7,9,11,13,-1,-1,-1,-1,-1,-1,-1,-1],"loss_changes":[1.0597835E1,1.1752996E0,2.3702679E0,1.9538736E-1,2.0393634E-1,1.7340252E0,1.3447042E0,0E0,0E0,0E0,0E0,0E0,0E0,0E0,0E0],"parents":[2147483647,0,0,1,1,2,2,3,3,4,4,5,5,6,6],"right_children":[2,4,6,8,10,12,14,-1,-1,-1,-1,-1,-1,-1,-1],"split_conditions":[3.9E0,1.7E0,7.7E0,8E-1,2.8E0,7.6E0,1.35E1,-1.3202188E-2,-8.105089E-3,-4.86694E-3,-2.12435E-3,3.955508E-3,-1.828498E-2,1.4023324E-2,-9.275835E-3],"split_indices":[0,0,0,0,0,0,0,0,0,0,0,0,0,0,0],"split_type":[0,0,0,0,0,0,0,0,0,0,0,0,0,0,0],"sum_hessian":[9.1E2,4.39E2,4.71E2,1.62E2,2.77E2,3.8E2,9.1E1,2.5E1,1.37E2,1.47E2,1.3E2,3.72E2,8E0,8.5E1,6E0],"tree_param":{"num_deleted":"0","num_feature":"1","num_nodes":"15","size_leaf_vector":"1"}},{"base_weights":[-2.1767207E-4,-7.714675E-2,1.3806656E-1,-1.404368E-1,-1.9956533E-2,1.178234E-1,3.671099E-1,-1.0083775E-2,-5.8409097E-3,-5.508309E-4,-7.4293735E-3,6.2856376E-3,-2.4969488E-2,3.2727744E-2,-4.2182747E-3],"categories":[],"categories_nodes":[],"categories_segments":[],"categories_sizes":[],"default_left":[0,0,0,0,0,0,0,0,0,0,0,0,0,0,0],"id":46,"left_children":[1,3,5,7,9,11,13,-1,-1,-1,-1,-1,-1,-1,-1],"loss_changes":[9.701942E0,2.1182666E0,1.468265E0,3.785324E-1,3.536975E-1,1.5284743E0,3.429354E0,0E0,0E0,0E0,0E0,0E0,0E0,0E0,0E0],"parents":[2147483647,0,0,1,1,2,2,3,3,4,4,5,5,6,6],"right_children":[2,4,6,8,10,12,14,-1,-1,-1,-1,-1,-1,-1,-1],"split_conditions":[5.8E0,2.5E0,9E0,1.2E0,5.5E0,8.7E0,1.13E1,-1.0083775E-2,-5.8409097E-3,-5.508309E-4,-7.4293735E-3,6.2856376E-3,-2.4969488E-2,3.2727744E-2,-4.2182747E-3],"split_indices":[0,0,0,0,0,0,0,0,0,0,0,0,0,0,0],"split_type":[0,0,0,0,0,0,0,0,0,0,0,0,0,0,0],"sum_hessian":[9.1E2,5.85E2,3.25E2,2.77E2,3.08E2,3E2,2.5E1,7.5E1,2.02E2,2.89E2,1.9E1,2.97E2,3E0,1.5E1,1E1],"tree_param":{"num_deleted":"0","num_feature":"1","num_nodes":"15","size_leaf_vector":"1"}},{"base_weights":[-2.2225843E-4,-7.968887E-2,1.210695E-1,-1.5672052E-1,-4.0956493E-2,1.02538474E-1,3.465074E-1,-1.2082669E-2,-7.092323E-3,-3.7402648E-3,-2.2027483E-4,5.4853777E-3,-3.637043E-2,3.0122166E-2,-4.026532E-3],"categories":[],"categories_nodes":[],"categories_segments":[],"categories_sizes":[],"default_left":[0,0,0,0,0,0,0,0,0,0,0,0,0,0,0],"id":47,"left_children":[1,3,5,7,9,11,13,-1,-1,-1,-1,-1,-1,-1,-1],"loss_changes":[8.790453E0,1.6375554E0,1.4725814E0,1.9816875E-1,4.5496273E-1,2.073037E0,2.999464E0,0E0,0E0,0E0,0E0,0E0,0E0,0E0,0E0],"parents":[2147483647,0,0,1,1,2,2,3,3,4,4,5,5,6,6],"right_children":[2,4,6,8,10,12,14,-1,-1,-1,-1,-1,-1,-1,-1],"split_conditions":[5.2E0,1.8E0,8.9E0,8E-1,3.2E0,8.7E0,1.13E1,-1.2082669E-2,-7.092323E-3,-3.7402648E-3,-2.2027483E-4,5.4853777E-3,-3.637043E-2,3.0122166E-2,-4.026532E-3],"split_indices":[0,0,0,0,0,0,0,0,0,0,0,0,0,0,0],"split_type":[0,0,0,0,0,0,0,0,0,0,0,0,0,0,0],"sum_hessian":[9.1E2,5.5E2,3.6E2,1.83E2,3.67E2,3.34E2,2.6E1,2.5E1,1.58E2,1.9E2,1.77E2,3.32E2,2E0,1.6E1,1E1],"tree_param":{"num_deleted":"0","num_feature":"1","num_nodes":"15","size_leaf_vector":"1"}},{"base_weights":[-2.4175755E-4,-6.805637E-2,1.2890913E-1,-1.2141201E-1,-1.0588182E-2,1.0104006E-1,2.673833E-1,-8.197005E-3,-4.5300694E-3,3.4629938E-3,-1.1476334E-3,6.0203127E-3,-1.0272547E-2,1.7558932E-2,-3.8435047E-3],"categories":[],"categories_nodes":[],"categories_segments":[],"categories_sizes":[],"default_left":[0,0,0,0,0,0,0,0,0,0,0,0,0,0,0],"id":48,"left_children":[1,3,5,7,9,11,13,-1,-1,-1,-1,-1,-1,-1,-1],"loss_changes":[7.9876003E0,1.8323331E0,1.1847553E0,3.913455E-1,2.8691366E-1,1.5857904E0,1.5270305E0,0E0,0E0,0E0,0E0,0E0,0E0,0E0,0E0],"parents":[2147483647,0,0,1,1,2,2,3,3,4,4,5,5,6,6],"right_children":[2,4,6,8,10,12,14,-1,-1,-1,-1,-1,-1,-1,-1],"split_conditions":[6E0,2.8E0,8.3E0,1.5E0,3E0,8.1E0,1.13E1,-8.197005E-3,-4.5300694E-3,3.4629938E-3,-1.1476334E-3,6.0203127E-3,-1.0272547E-2,1.7558932E-2,-3.8435047E-3],"split_indices":[0,0,0,0,0,0,0,0,0,0,0,0,0,0,0],"split_type":[0,0,0,0,0,0,0,0,0,0,0,0,0,0,0],"sum_hessian":[9.1E2,5.97E2,3.13E2,3.09E2,2.88E2,2.62E2,5.1E1,1.28E2,1.81E2,3.8E1,2.5E2,2.47E2,1.5E1,4.1E1,1E1],"tree_param":{"num_deleted":"0","num_feature":"1","num_nodes":"15","size_leaf_vector":"1"}},{"base_weights":[-2.3069006E-4,-8.714793E-2,9.13853E-2,-1.4756647E-1,-5.4679397E-2,5.0017174E-2,1.8570183E-1,-1.1107683E-2,-6.6222246E-3,-3.5779097E-3,-8.218728E-4,2.9696391E-3,-1.18595185E-2,3.0947728E-2,6.522905E-3],"categories":[],"categories_nodes":[],"categories_segments":[],"categories_sizes":[],"default_left":[0,0,0,0,0,0,0,0,0,0,0,0,0,0,0],"id":49,"left_children":[1,3,5,7,9,11,13,-1,-1,-1,-1,-1,-1,-1,-1],"loss_changes":[7.2622643E0,9.100077E-1,1.7230654E0,1.5442538E-1,1.9634002E-1,8.488383E-1,3.1504092E0,0E0,0E0,0E0,0E0,0E0,0E0,0E0,0E0],"parents":[2147483647,0,0,1,1,2,2,3,3,4,4,5,5,6,6],"right_children":[2,4,6,8,10,12,14,-1,-1,-1,-1,-1,-1,-1,-1],"split_conditions":[4.2E0,1.7E0,7.4E0,8E-1,3.2E0,7.3E0,7.5E0,-1.1107683E-2,-6.6222246E-3,-3.5779097E-3,-8.218728E-4,2.9696391E-3,-1.18595185E-2,3.0947728E-2,6.522905E-3],"split_indices":[0,0,0,0,0,0,0,0,0,0,0,0,0,0,0],"split_type":[0,0,0,0,0,0,0,0,0,0,0,0,0,0,0],"sum_hessian":[9.1E2,4.67E2,4.43E2,1.62E2,3.05E2,3.09E2,1.34E2,2.5E1,1.37E2,2.11E2,9.4E1,3E2,9E0,1.4E1,1.2E2],"tree_param":{"num_deleted":"0","num_feature":"1","num_nodes":"15","size_leaf_vector":"1"}},{"base_weights":[-2.1211107E-4,-6.1943397E-2,1.17353246E-1,-1.0986346E-1,-1.0326919E-2,9.8797195E-2,3.190973E-1,-7.738703E-3,-4.271447E-3,3.4685922E-3,-1.1334625E-3,5.3329836E-3,-2.4403468E-2,6.1264213E-2,9.626412E-3],"categories":[],"categories_nodes":[],"categories_segments":[],"categories_sizes":[],"default_left":[0,0,0,0,0,0,0,0,0,0,0,0,0,0,0],"id":50,"left_children":[1,3,5,7,9,11,13,-1,-1,-1,-1,-1,-1,-1,-1],"loss_changes":[6.6188154E0,1.4779975E0,1.1439562E0,3.2696223E-1,2.858528E-1,1.3855689E0,2.7461748E0,0E0,0E0,0E0,0E0,0E0,0E0,0E0,0E0],"parents":[2147483647,0,0,1,1,2,2,3,3,4,4,5,5,6,6],"right_children":[2,4,6,8,10,12,14,-1,-1,-1,-1,-1,-1,-1,-1],"split_conditions":[6E0,2.8E0,9E0,1.4E0,3E0,8.7E0,9.1E0,-7.738703E-3,-4.271447E-3,3.4685922E-3,-1.1334625E-3,5.3329836E-3,-2.4403468E-2,6.1264213E-2,9.626412E-3],"split_indices":[0,0,0,0,0,0,0,0,0,0,0,0,0,0,0],"split_type":[0,0,0,0,0,0,0,0,0,0,0,0,0,0,0],"sum_hessian":[9.1E2,5.97E2,3.13E2,3.09E2,2.88E2,2.88E2,2.5E1,1.07E2,2.02E2,3.8E1,2.5E2,2.85E2,3E0,2E0,2.3E1],"tree_param":{"num_deleted":"0","num_feature":"1","num_nodes":"15","size_leaf_vector":"1"}},{"base_weights":[-1.5524654E-4,-8.432097E-2,7.8304656E-2,-1.3377565E-1,-5.502085E-2,4.8916414E-2,1.9915918E-1,-1.0201607E-2,-5.9784767E-3,-3.2759046E-3,-1.0492251E-3,2.951655E-3,-1.878996E-2,1.1389517E-2,-9.052328E-3],"categories":[],"categories_nodes":[],"categories_segments":[],"categories_sizes":[],"default_left":[0,0,0,0,0,0,0,0,0,0,0,0,0,0,0],"id":51,"left_children":[1,3,5,7,9,11,13,-1,-1,-1,-1,-1,-1,-1,-1],"loss_changes":[6.022514E0,6.3021183E-1,1.666661E0,1.3828993E-1,9.7951114E-2,1.6592331E0,1.0427282E0,0E0,0E0,0E0,0E0,0E0,0E0,0E0,0E0],"parents":[2147483647,0,0,1,1,2,2,3,3,4,4,5,5,6,6],"right_children":[2,4,6,8,10,12,14,-1,-1,-1,-1,-1,-1,-1,-1],"split_conditions":[3.9E0,1.7E0,7.7E0,8E-1,3.2E0,7.6E0,1.35E1,-1.0201607E-2,-5.9784767E-3,-3.2759046E-3,-1.0492251E-3,2.951655E-3,-1.878996E-2,1.1389517E-2,-9.052328E-3],"split_indices":[0,0,0,0,0,0,0,0,0,0,0,0,0,0,0],"split_type":[0,0,0,0,0,0,0,0,0,0,0,0,0,0,0],"sum_hessian":[9.1E2,4.39E2,4.71E2,1.62E2,2.77E2,3.8E2,9.1E1,2.5E1,1.37E2,2.11E2,6.6E1,3.72E2,8E0,8.5E1,6E0],"tree_param":{"num_deleted":"0","num_feature":"1","num_nodes":"15","size_leaf_vector":"1"}},{"base_weights":[-1.8480682E-4,-5.6574482E-2,1.0720758E-1,-1.10627696E-1,-1.9774895E-2,8.90774E-2,2.9662555E-1,-9.711145E-3,-5.0050938E-3,-2.6910019E-3,2.1872733E-5,4.857677E-3,-3.5527006E-2,2.6378715E-2,-4.3630577E-3],"categories":[],"categories_nodes":[],"categories_segments":[],"categories_sizes":[],"default_left":[0,0,0,0,0,0,0,0,0,0,0,0,0,0,0],"id":52,"left_children":[1,3,5,7,9,11,13,-1,-1,-1,-1,-1,-1,-1,-1],"loss_changes":[5.522919E0,1.1873156E0,1.0519109E0,1.9349575E-1,2.4568678E-1,1.9288838E0,2.439807E0,0E0,0E0,0E0,0E0,0E0,0E0,0E0,0E0],"parents":[2147483647,0,0,1,1,2,2,3,3,4,4,5,5,6,6],"right_children":[2,4,6,8,10,12,14,-1,-1,-1,-1,-1,-1,-1,-1],"split_conditions":[6E0,2.1E0,8.9E0,8E-1,3.2E0,8.7E0,1.13E1,-9.711145E-3,-5.0050938E-3,-2.6910019E-3,2.1872733E-5,4.857677E-3,-3.5527006E-2,2.6378715E-2,-4.3630577E-3],"split_indices":[0,0,0,0,0,0,0,0,0,0,0,0,0,0,0],"split_type":[0,0,0,0,0,0,0,0,0,0,0,0,0,0,0],"sum_hessian":[9.1E2,5.97E2,3.13E2,2.41E2,3.56E2,2.87E2,2.6E1,2.5E1,2.16E2,1.32E2,2.24E2,2.85E2,2E0,1.6E1,1E1],"tree_param":{"num_deleted":"0","num_feature":"1","num_nodes":"15","size_leaf_vector":"1"}},{"base_weights":[-2.0417573E-4,-5.657274E-2,9.688497E-2,-1.1699098E-1,-2.8213527E-2,8.034305E-2,2.8260973E-1,-9.244263E-3,-5.257649E-3,-1.1512997E-3,-2.1359924E-2,4.3110857E-3,-4.3257084E-2,2.5137369E-2,-4.164737E-3],"categories":[],"categories_nodes":[],"categories_segments":[],"categories_sizes":[],"default_left":[0,0,0,0,0,0,0,0,0,0,0,0,0,0,0],"id":53,"left_children":[1,3,5,7,9,11,13,-1,-1,-1,-1,-1,-1,-1,-1],"loss_changes":[4.9911795E0,9.8533916E-1,1.0064962E0,1.2844563E-1,8.0564404E-1,1.7920717E0,2.2167084E0,0E0,0E0,0E0,0E0,0E0,0E0,0E0,0E0],"parents":[2147483647,0,0,1,1,2,2,3,3,4,4,5,5,6,6],"right_children":[2,4,6,8,10,12,14,-1,-1,-1,-1,-1,-1,-1,-1],"split_conditions":[5.7E0,1.8E0,8.9E0,8E-1,5.6E0,8.8E0,1.13E1,-9.244263E-3,-5.257649E-3,-1.1512997E-3,-2.1359924E-2,4.3110857E-3,-4.3257084E-2,2.5137369E-2,-4.164737E-3],"split_indices":[0,0,0,0,0,0,0,0,0,0,0,0,0,0,0],"split_type":[0,0,0,0,0,0,0,0,0,0,0,0,0,0,0],"sum_hessian":[9.1E2,5.76E2,3.34E2,1.83E2,3.93E2,3.08E2,2.6E1,2.5E1,1.58E2,3.89E2,4E0,3.07E2,1E0,1.6E1,1E1],"tree_param":{"num_deleted":"0","num_feature":"1","num_nodes":"15","size_leaf_vector":"1"}},{"base_weights":[-2.5431463E-4,-4.3587223E-2,1.14492245E-1,-8.2808286E-2,7.320265E-3,9.5644526E-2,2.731939E-1,-3.6283364E-3,-1.0587182E-2,1.1101047E-3,-3.4888852E-3,5.264588E-3,-2.3184393E-2,5.712522E-2,7.6573514E-3],"categories":[],"categories_nodes":[],"categories_segments":[],"categories_sizes":[],"default_left":[0,0,0,0,0,0,0,0,0,0,0,0,0,0,0],"id":54,"left_children":[1,3,5,7,9,11,13,-1,-1,-1,-1,-1,-1,-1,-1],"loss_changes":[4.534757E0,1.3223857E0,7.216613E-1,4.7850132E-1,3.3313593E-1,1.2629242E0,2.5383372E0,0E0,0E0,0E0,0E0,0E0,0E0,0E0,0E0],"parents":[2147483647,0,0,1,1,2,2,3,3,4,4,5,5,6,6],"right_children":[2,4,6,8,10,12,14,-1,-1,-1,-1,-1,-1,-1,-1],"split_conditions":[6.4E0,3.2E0,9E0,3E0,6.1E0,8.7E0,9.1E0,-3.6283364E-3,-1.0587182E-2,1.1101047E-3,-3.4888852E-3,5.264588E-3,-2.3184393E-2,5.712522E-2,7.6573514E-3],"split_indices":[0,0,0,0,0,0,0,0,0,0,0,0,0,0,0],"split_type":[0,0,0,0,0,0,0,0,0,0,0,0,0,0,0],"sum_hessian":[9.1E2,6.61E2,2.49E2,3.73E2,2.88E2,2.24E2,2.5E1,3.47E2,2.6E1,2.42E2,4.6E1,2.21E2,3E0,2E0,2.3E1],"tree_param":{"num_deleted":"0","num_feature":"1","num_nodes":"15","size_leaf_vector":"1"}},{"base_weights":[-2.0835303E-4,-4.910888E-2,9.292134E-2,-9.316681E-2,-1.3767985E-2,6.9888964E-2,2.1032578E-1,-6.9135316E-3,-3.8333572E-3,-2.975641E-4,-4.3553934E-3,4.4393535E-3,-1.0495607E-2,1.4241198E-2,-4.3234914E-3],"categories":[],"categories_nodes":[],"categories_segments":[],"categories_sizes":[],"default_left":[0,0,0,0,0,0,0,0,0,0,0,0,0,0,0],"id":55,"left_children":[1,3,5,7,9,11,13,-1,-1,-1,-1,-1,-1,-1,-1],"loss_changes":[4.15334E0,9.2983127E-1,8.34389E-1,1.8735552E-1,1.903825E-1,1.414593E0,1.152276E0,0E0,0E0,0E0,0E0,0E0,0E0,0E0,0E0],"parents":[2147483647,0,0,1,1,2,2,3,3,4,4,5,5,6,6],"right_children":[2,4,6,8,10,12,14,-1,-1,-1,-1,-1,-1,-1,-1],"split_conditions":[6E0,2.3E0,8.4E0,1.1E0,5.5E0,8.1E0,1.13E1,-6.9135316E-3,-3.8333572E-3,-2.975641E-4,-4.3553934E-3,4.4393535E-3,-1.0495607E-2,1.4241198E-2,-4.3234914E-3],"split_indices":[0,0,0,0,0,0,0,0,0,0,0,0,0,0,0],"split_type":[0,0,0,0,0,0,0,0,0,0,0,0,0,0,0],"sum_hessian":[9.1E2,5.97E2,3.13E2,2.65E2,3.32E2,2.63E2,5E1,6.9E1,1.96E2,3.01E2,3.1E1,2.47E2,1.6E1,4E1,1E1],"tree_param":{"num_deleted":"0","num_feature":"1","num_nodes":"15","size_leaf_vector":"1"}},{"base_weights":[-2.1060037E-4,-6.311292E-2,6.609232E-2,-1.0693331E-1,-3.9564434E-2,4.012666E-2,1.6500303E-1,-8.293006E-3,-4.7528143E-3,-2.5342815E-3,-7.165071E-4,2.5431253E-3,-1.8793637E-2,2.0821217E-2,5.917936E-3],"categories":[],"categories_nodes":[],"categories_segments":[],"categories_sizes":[],"default_left":[0,0,0,0,0,0,0,0,0,0,0,0,0,0,0],"id":56,"left_children":[1,3,5,7,9,11,13,-1,-1,-1,-1,-1,-1,-1,-1],"loss_changes":[3.8035948E0,4.7870028E-1,1.1336961E0,9.831369E-2,8.5148156E-2,1.5956535E0,1.0296314E0,0E0,0E0,0E0,0E0,0E0,0E0,0E0,0E0],"parents":[2147483647,0,0,1,1,2,2,3,3,4,4,5,5,6,6],"right_children":[2,4,6,8,10,12,14,-1,-1,-1,-1,-1,-1,-1,-1],"split_conditions":[4.2E0,1.7E0,7.7E0,8E-1,3.2E0,7.6E0,7.9E0,-8.293006E-3,-4.7528143E-3,-2.5342815E-3,-7.165071E-4,2.5431253E-3,-1.8793637E-2,2.0821217E-2,5.917936E-3],"split_indices":[0,0,0,0,0,0,0,0,0,0,0,0,0,0,0],"split_type":[0,0,0,0,0,0,0,0,0,0,0,0,0,0,0],"sum_hessian":[9.1E2,4.67E2,4.43E2,1.62E2,3.05E2,3.52E2,9.1E1,2.5E1,1.37E2,2.11E2,9.4E1,3.44E2,8E0,1.3E1,7.8E1],"tree_param":{"num_deleted":"0","num_feature":"1","num_nodes":"15","size_leaf_vector":"1"}},{"base_weights":[-2.0649674E-4,-3.8206346E-2,1.0041793E-1,-7.9044454E-2,-2.2346145E-3,8.232255E-2,2.4682337E-1,-6.2753293E-3,-3.2610625E-3,3.96112E-3,-6.1563373E-4,4.607167E-3,-3.3592843E-2,2.2445131E-2,-4.3959706E-3],"categories":[],"categories_nodes":[],"categories_segments":[],"categories_sizes":[],"default_left":[0,0,0,0,0,0,0,0,0,0,0,0,0,0,0],"id":57,"left_children":[1,3,5,7,9,11,13,-1,-1,-1,-1,-1,-1,-1,-1],"loss_changes":[3.4872391E0,9.7231305E-1,6.419959E-1,1.9091356E-1,2.9076323E-1,1.7209938E0,1.8658704E0,0E0,0E0,0E0,0E0,0E0,0E0,0E0,0E0],"parents":[2147483647,0,0,1,1,2,2,3,3,4,4,5,5,6,6],"right_children":[2,4,6,8,10,12,14,-1,-1,-1,-1,-1,-1,-1,-1],"split_conditions":[6.4E0,2.8E0,8.9E0,1.1E0,3E0,8.7E0,1.13E1,-6.2753293E-3,-3.2610625E-3,3.96112E-3,-6.1563373E-4,4.607167E-3,-3.3592843E-2,2.2445131E-2,-4.3959706E-3],"split_indices":[0,0,0,0,0,0,0,0,0,0,0,0,0,0,0],"split_type":[0,0,0,0,0,0,0,0,0,0,0,0,0,0,0],"sum_hessian":[9.1E2,6.61E2,2.49E2,3.09E2,3.52E2,2.23E2,2.6E1,6.9E1,2.4E2,3.8E1,3.14E2,2.21E2,2E0,1.6E1,1E1],"tree_param":{"num_deleted":"0","num_feature":"1","num_nodes":"15","size_leaf_vector":"1"}},{"base_weights":[-2.1498487E-4,-4.8001584E-2,7.272305E-2,-9.331556E-2,-2.5214158E-2,5.3446084E-2,1.862449E-1,-7.592606E-3,-4.1578324E-3,-7.503276E-4,-4.3478208E-3,3.4350909E-3,-1.1558599E-2,1.1821431E-2,-8.507007E-3],"categories":[],"categories_nodes":[],"categories_segments":[],"categories_sizes":[],"default_left":[0,0,0,0,0,0,0,0,0,0,0,0,0,0,0],"id":58,"left_children":[1,3,5,7,9,11,13,-1,-1,-1,-1,-1,-1,-1,-1],"loss_changes":[3.1787455E0,5.6660354E-1,7.8004277E-1,9.679139E-2,2.3062362E-1,1.3619201E0,9.7023153E-1,0E0,0E0,0E0,0E0,0E0,0E0,0E0,0E0],"parents":[2147483647,0,0,1,1,2,2,3,3,4,4,5,5,6,6],"right_children":[2,4,6,8,10,12,14,-1,-1,-1,-1,-1,-1,-1,-1],"split_conditions":[5.2E0,1.8E0,8.3E0,8E-1,4.6E0,8.1E0,1.35E1,-7.592606E-3,-4.1578324E-3,-7.503276E-4,-4.3478208E-3,3.4350909E-3,-1.1558599E-2,1.1821431E-2,-8.507007E-3],"split_indices":[0,0,0,0,0,0,0,0,0,0,0,0,0,0,0],"split_type":[0,0,0,0,0,0,0,0,0,0,0,0,0,0,0],"sum_hessian":[9.1E2,5.5E2,3.6E2,1.83E2,3.67E2,3.09E2,5.1E1,2.5E1,1.58E2,3.16E2,5.1E1,2.94E2,1.5E1,4.5E1,6E0],"tree_param":{"num_deleted":"0","num_feature":"1","num_nodes":"15","size_leaf_vector":"1"}},{"base_weights":[-2.2803155E-4,-5.8456752E-2,5.4773144E-2,-9.5504016E-2,-4.0109918E-2,2.5451323E-2,1.2712897E-1,-7.227576E-3,-4.2087794E-3,-1.3388125E-3,-3.3943632E-3,1.7072158E-3,-1.3024273E-2,2.7742168E-2,3.6527943E-3],"categories":[],"categories_nodes":[],"categories_segments":[],"categories_sizes":[],"default_left":[0,0,0,0,0,0,0,0,0,0,0,0,0,0,0],"id":59,"left_children":[1,3,5,7,9,11,13,-1,-1,-1,-1,-1,-1,-1,-1],"loss_changes":[2.9208143E0,2.9727638E-1,9.9179685E-1,6.895447E-2,1.0855362E-1,8.415859E-1,3.0817244E0,0E0,0E0,0E0,0E0,0E0,0E0,0E0,0E0],"parents":[2147483647,0,0,1,1,2,2,3,3,4,4,5,5,6,6],"right_children":[2,4,6,8,10,12,14,-1,-1,-1,-1,-1,-1,-1,-1],"split_conditions":[4E0,1.6E0,7.4E0,8E-1,3E0,7.3E0,7.5E0,-7.227576E-3,-4.2087794E-3,-1.3388125E-3,-3.3943632E-3,1.7072158E-3,-1.3024273E-2,2.7742168E-2,3.6527943E-3],"split_indices":[0,0,0,0,0,0,0,0,0,0,0,0,0,0,0],"split_type":[0,0,0,0,0,0,0,0,0,0,0,0,0,0,0],"sum_hessian":[9.1E2,4.42E2,4.68E2,1.45E2,2.97E2,3.34E2,1.34E2,2.5E1,1.2E2,2.02E2,9.5E1,3.25E2,9E0,1.4E1,1.2E2],"tree_param":{"num_deleted":"0","num_feature":"1","num_nodes":"15","size_leaf_vector":"1"}},{"base_weights":[-2.1236352E-4,-3.354248E-2,8.804663E-2,-6.328179E-2,5.059751E-3,7.144409E-2,2.283361E-1,-2.646979E-3,-9.711883E-3,1.0515987E-3,-3.8813849E-3,4.036549E-3,-2.3091981E-2,5.3285103E-2,5.707567E-3],"categories":[],"categories_nodes":[],"categories_segments":[],"categories_sizes":[],"default_left":[0,0,0,0,0,0,0,0,0,0,0,0,0,0,0],"id":60,"left_children":[1,3,5,7,9,11,13,-1,-1,-1,-1,-1,-1,-1,-1],"loss_changes":[2.6828265E0,7.602986E-1,5.659772E-1,4.9625278E-1,3.8331562E-1,1.1516083E0,2.3643239E0,0E0,0E0,0E0,0E0,0E0,0E0,0E0,0E0],"parents":[2147483647,0,0,1,1,2,2,3,3,4,4,5,5,6,6],"right_children":[2,4,6,8,10,12,14,-1,-1,-1,-1,-1,-1,-1,-1],"split_conditions":[6.4E0,3.2E0,9E0,3E0,6.1E0,8.7E0,9.1E0,-2.646979E-3,-9.711883E-3,1.0515987E-3,-3.8813849E-3,4.036549E-3,-2.3091981E-2,5.3285103E-2,5.707567E-3],"split_indices":[0,0,0,0,0,0,0,0,0,0,0,0,0,0,0],"split_type":[0,0,0,0,0,0,0,0,0,0,0,0,0,0,0],"sum_hessian":[9.1E2,6.61E2,2.49E2,3.73E2,2.88E2,2.24E2,2.5E1,3.47E2,2.6E1,2.42E2,4.6E1,2.21E2,3E0,2E0,2.3E1],"tree_param":{"num_deleted":"0","num_feature":"1","num_nodes":"15","size_leaf_vector":"1"}},{"base_weights":[-1.7462396E-4,-3.7577927E-2,7.105897E-2,-7.402306E-2,-1.2767558E-2,1.2714437E-2,5.9057537E-2,-6.098122E-3,-3.2106116E-3,-2.5365208E-4,-4.537823E-3,-3.6914411E-3,4.190197E-3],"categories":[],"categories_nodes":[],"categories_segments":[],"categories_sizes":[],"default_left":[0,0,0,0,0,0,0,0,0,0,0,0,0],"id":61,"left_children":[1,3,5,7,9,-1,11,-1,-1,-1,-1,-1,-1],"loss_changes":[2.4299128E0,5.3977674E-1,6.7547464E-1,1.0598731E-1,2.1377064E-1,0E0,9.795712E-1,0E0,0E0,0E0,0E0,0E0,0E0],"parents":[2147483647,0,0,1,1,2,2,3,3,4,4,6,6],"right_children":[2,4,6,8,10,-1,12,-1,-1,-1,-1,-1,-1],"split_conditions":[6E0,2.1E0,6.1E0,1E0,5.5E0,1.2714437E-2,6.4E0,-6.098122E-3,-3.2106116E-3,-2.5365208E-4,-4.537823E-3,-3.6914411E-3,4.190197E-3],"split_indices":[0,0,0,0,0,0,0,0,0,0,0,0,0],"split_type":[0,0,0,0,0,0,0,0,0,0,0,0,0],"sum_hessian":[9.1E2,5.97E2,3.13E2,2.41E2,3.56E2,1.8E1,2.95E2,3.9E1,2.02E2,3.25E2,3.1E1,4.6E1,2.49E2],"tree_param":{"num_deleted":"0","num_feature":"1","num_nodes":"13","size_leaf_vector":"1"}},{"base_weights":[-1.6685635E-4,-4.8345365E-2,5.061627E-2,-8.1631295E-2,-3.0456632E-2,2.8594533E-2,1.3456255E-1,-6.4596594E-3,-3.6039415E-3,-8.8315055E-4,-2.4935578E-3,1.9544568E-3,-1.884379E-2,1.8929562E-2,4.4806823E-3],"categories":[],"categories_nodes":[],"categories_segments":[],"categories_sizes":[],"default_left":[0,0,0,0,0,0,0,0,0,0,0,0,0,0,0],"id":62,"left_children":[1,3,5,7,9,11,13,-1,-1,-1,-1,-1,-1,-1,-1],"loss_changes":[2.2313504E0,2.761811E-1,8.1694984E-1,6.4744234E-2,7.5124055E-2,1.5168352E0,9.752046E-1,0E0,0E0,0E0,0E0,0E0,0E0,0E0,0E0],"parents":[2147483647,0,0,1,1,2,2,3,3,4,4,5,5,6,6],"right_children":[2,4,6,8,10,12,14,-1,-1,-1,-1,-1,-1,-1,-1],"split_conditions":[4.2E0,1.7E0,7.7E0,8E-1,3E0,7.6E0,7.9E0,-6.4596594E-3,-3.6039415E-3,-8.8315055E-4,-2.4935578E-3,1.9544568E-3,-1.884379E-2,1.8929562E-2,4.4806823E-3],"split_indices":[0,0,0,0,0,0,0,0,0,0,0,0,0,0,0],"split_type":[0,0,0,0,0,0,0,0,0,0,0,0,0,0,0],"sum_hessian":[9.1E2,4.67E2,4.43E2,1.62E2,3.05E2,3.52E2,9.1E1,2.5E1,1.37E2,1.85E2,1.2E2,3.44E2,8E0,1.3E1,7.8E1],"tree_param":{"num_deleted":"0","num_feature":"1","num_nodes":"15","size_leaf_vector":"1"}},{"base_weights":[-1.661515E-4,-2.5231814E-2,9.0222985E-2,-1.9463496E-2,-2.244193E-1,9.881307E-2,-2.0112856E-1,-1.3687497E-3,1.3172999E-2,-3.3137523E-2,-6.944818E-3,3.8960488E-3,2.8610138E-2,-1.6654173E-2,1.14661455E-2],"categories":[],"categories_nodes":[],"categories_segments":[],"categories_sizes":[],"default_left":[0,0,0,0,0,0,0,0,0,0,0,0,0,0,0],"id":63,"left_children":[1,3,5,7,9,11,13,-1,-1,-1,-1,-1,-1,-1,-1],"loss_changes":[2.066296E0,8.160015E-1,5.1541567E-1,1.562864E0,6.576936E-1,1.8642033E0,4.171847E-1,0E0,0E0,0E0,0E0,0E0,0E0,0E0,0E0],"parents":[2147483647,0,0,1,1,2,2,3,3,4,4,5,5,6,6],"right_children":[2,4,6,8,10,12,14,-1,-1,-1,-1,-1,-1,-1,-1],"split_conditions":[7E0,6.6E0,1.36E1,6.5E0,6.7E0,1E1,1.46E1,-1.3687497E-3,1.3172999E-2,-3.3137523E-2,-6.944818E-3,3.8960488E-3,2.8610138E-2,-1.6654173E-2,1.14661455E-2],"split_indices":[0,0,0,0,0,0,0,0,0,0,0,0,0,0,0],"split_type":[0,0,0,0,0,0,0,0,0,0,0,0,0,0,0],"sum_hessian":[9.1E2,7.13E2,1.97E2,6.94E2,1.9E1,1.92E2,5E0,6.76E2,1.8E1,2E0,1.7E1,1.85E2,7E0,4E0,1E0],"tree_param":{"num_deleted":"0","num_feature":"1","num_nodes":"15","size_leaf_vector":"1"}},{"base_weights":[-1.58883E-4,-4.7578685E-2,4.4046357E-2,-7.625111E-2,-3.059601E-2,2.4825739E-2,1.2316602E-1,-6.083293E-3,-3.3571084E-3,-7.711616E-4,-3.0306287E-3,1.7065557E-3,-1.8179439E-2,1.7869806E-2,4.004891E-3],"categories":[],"categories_nodes":[],"categories_segments":[],"categories_sizes":[],"default_left":[0,0,0,0,0,0,0,0,0,0,0,0,0,0,0],"id":64,"left_children":[1,3,5,7,9,11,13,-1,-1,-1,-1,-1,-1,-1,-1],"loss_changes":[1.9117373E0,2.1191823E-1,7.1472627E-1,5.9261084E-2,1.2567598E-1,1.3894743E0,8.9945734E-1,0E0,0E0,0E0,0E0,0E0,0E0,0E0,0E0],"parents":[2147483647,0,0,1,1,2,2,3,3,4,4,5,5,6,6],"right_children":[2,4,6,8,10,12,14,-1,-1,-1,-1,-1,-1,-1,-1],"split_conditions":[3.9E0,1.7E0,7.7E0,8E-1,3E0,7.6E0,7.9E0,-6.083293E-3,-3.3571084E-3,-7.711616E-4,-3.0306287E-3,1.7065557E-3,-1.8179439E-2,1.7869806E-2,4.004891E-3],"split_indices":[0,0,0,0,0,0,0,0,0,0,0,0,0,0,0],"split_type":[0,0,0,0,0,0,0,0,0,0,0,0,0,0,0],"sum_hessian":[9.1E2,4.39E2,4.71E2,1.62E2,2.77E2,3.8E2,9.1E1,2.5E1,1.37E2,1.85E2,9.2E1,3.72E2,8E0,1.3E1,7.8E1],"tree_param":{"num_deleted":"0","num_feature":"1","num_nodes":"15","size_leaf_vector":"1"}},{"base_weights":[-1.5956371E-4,-2.3217265E-2,8.298871E-2,-1.7612452E-2,-2.1682364E-1,9.206968E-2,-1.7794493E-1,-1.2539556E-3,1.2468171E-2,-3.2089822E-2,-6.6974545E-3,3.5629284E-3,3.1594895E-2,-1.4073245E-2,1.1079371E-2],"categories":[],"categories_nodes":[],"categories_segments":[],"categories_sizes":[],"default_left":[0,0,0,0,0,0,0,0,0,0,0,0,0,0,0],"id":65,"left_children":[1,3,5,7,9,11,13,-1,-1,-1,-1,-1,-1,-1,-1],"loss_changes":[1.7485031E0,7.7096224E-1,4.8555064E-1,1.3916795E0,6.184206E-1,2.1119814E0,3.518861E-1,0E0,0E0,0E0,0E0,0E0,0E0,0E0,0E0],"parents":[2147483647,0,0,1,1,2,2,3,3,4,4,5,5,6,6],"right_children":[2,4,6,8,10,12,14,-1,-1,-1,-1,-1,-1,-1,-1],"split_conditions":[7E0,6.6E0,1.35E1,6.5E0,6.7E0,1E1,1.46E1,-1.2539556E-3,1.2468171E-2,-3.2089822E-2,-6.6974545E-3,3.5629284E-3,3.1594895E-2,-1.4073245E-2,1.1079371E-2],"split_indices":[0,0,0,0,0,0,0,0,0,0,0,0,0,0,0],"split_type":[0,0,0,0,0,0,0,0,0,0,0,0,0,0,0],"sum_hessian":[9.1E2,7.13E2,1.97E2,6.94E2,1.9E1,1.91E2,6E0,6.76E2,1.8E1,2E0,1.7E1,1.85E2,6E0,5E0,1E0],"tree_param":{"num_deleted":"0","num_feature":"1","num_nodes":"15","size_leaf_vector":"1"}},{"base_weights":[-1.4657226E-4,-4.397873E-2,4.0714223E-2,-7.374441E-2,-2.909816E-2,3.1552814E-2,1.9053918E-1,-5.730541E-3,-3.2176867E-3,-8.2294893E-4,-2.8187016E-3,1.7680315E-3,-4.1573133E-2,3.981498E-2,4.081999E-3],"categories":[],"categories_nodes":[],"categories_segments":[],"categories_sizes":[],"default_left":[0,0,0,0,0,0,0,0,0,0,0,0,0,0,0],"id":66,"left_children":[1,3,5,7,9,11,13,-1,-1,-1,-1,-1,-1,-1,-1],"loss_changes":[1.6334069E0,1.9274336E-1,6.418587E-1,4.865378E-2,1.00771815E-1,1.4950479E0,1.716094E0,0E0,0E0,0E0,0E0,0E0,0E0,0E0,0E0],"parents":[2147483647,0,0,1,1,2,2,3,3,4,4,5,5,6,6],"right_children":[2,4,6,8,10,12,14,-1,-1,-1,-1,-1,-1,-1,-1],"split_conditions":[3.9E0,1.6E0,8.9E0,8E-1,3E0,8.8E0,9.1E0,-5.730541E-3,-3.2176867E-3,-8.2294893E-4,-2.8187016E-3,1.7680315E-3,-4.1573133E-2,3.981498E-2,4.081999E-3],"split_indices":[0,0,0,0,0,0,0,0,0,0,0,0,0,0,0],"split_type":[0,0,0,0,0,0,0,0,0,0,0,0,0,0,0],"sum_hessian":[9.1E2,4.39E2,4.71E2,1.45E2,2.94E2,4.45E2,2.6E1,2.5E1,1.2E2,2.02E2,9.2E1,4.44E2,1E0,3E0,2.3E1],"tree_param":{"num_deleted":"0","num_feature":"1","num_nodes":"15","size_leaf_vector":"1"}},{"base_weights":[-1.486155E-4,-1.9335805E-2,8.544782E-2,-5.3983208E-2,5.3431657E-3,1.9679259E-1,4.149202E-2,-4.2938343E-3,-2.2247774E-3,7.2816544E-4,-3.2272718E-3,2.4403066E-3,2.5462165E-2,-8.448955E-3,5.4836455E-3],"categories":[],"categories_nodes":[],"categories_segments":[],"categories_sizes":[],"default_left":[0,0,0,0,0,0,0,0,0,0,0,0,0,0,0],"id":67,"left_children":[1,3,5,7,9,11,13,-1,-1,-1,-1,-1,-1,-1,-1],"loss_changes":[1.4978375E0,6.373098E-1,8.091742E-1,8.9983284E-2,2.8189096E-1,2.148354E0,1.7548953E0,0E0,0E0,0E0,0E0,0E0,0E0,0E0,0E0],"parents":[2147483647,0,0,1,1,2,2,3,3,4,4,5,5,6,6],"right_children":[2,4,6,8,10,12,14,-1,-1,-1,-1,-1,-1,-1,-1],"split_conditions":[7.2E0,2.8E0,7.5E0,1.1E0,6.6E0,7.4E0,7.7E0,-4.2938343E-3,-2.2247774E-3,7.2816544E-4,-3.2272718E-3,2.4403066E-3,2.5462165E-2,-8.448955E-3,5.4836455E-3],"split_indices":[0,0,0,0,0,0,0,0,0,0,0,0,0,0,0],"split_type":[0,0,0,0,0,0,0,0,0,0,0,0,0,0,0],"sum_hessian":[9.1E2,7.44E2,1.66E2,3.09E2,4.35E2,4.6E1,1.2E2,6.9E1,2.4E2,3.85E2,5E1,3.2E1,1.4E1,2.9E1,9.1E1],"tree_param":{"num_deleted":"0","num_feature":"1","num_nodes":"15","size_leaf_vector":"1"}},{"base_weights":[-1.2368924E-4,-3.253423E-2,4.671118E-2,-2.7085466E-2,-1.8023278E-1,3.6563944E-2,1.8073142E-1,-1.8885328E-3,3.3010554E-3,-2.4866914E-2,2.1901912E-4,2.1129276E-3,-2.3186842E-2,4.9327817E-2,3.6236409E-3],"categories":[],"categories_nodes":[],"categories_segments":[],"categories_sizes":[],"default_left":[0,0,0,0,0,0,0,0,0,0,0,0,0,0,0],"id":68,"left_children":[1,3,5,7,9,11,13,-1,-1,-1,-1,-1,-1,-1,-1],"loss_changes":[1.3843662E0,4.288919E-1,5.006475E-1,5.208165E-1,1.1144736E0,1.0110543E0,2.1966763E0,0E0,0E0,0E0,0E0,0E0,0E0,0E0,0E0],"parents":[2147483647,0,0,1,1,2,2,3,3,4,4,5,5,6,6],"right_children":[2,4,6,8,10,12,14,-1,-1,-1,-1,-1,-1,-1,-1],"split_conditions":[5.1E0,4.9E0,9E0,4.2E0,5E0,8.7E0,9.1E0,-1.8885328E-3,3.3010554E-3,-2.4866914E-2,2.1901912E-4,2.1129276E-3,-2.3186842E-2,4.9327817E-2,3.6236409E-3],"split_indices":[0,0,0,0,0,0,0,0,0,0,0,0,0,0,0],"split_type":[0,0,0,0,0,0,0,0,0,0,0,0,0,0,0],"sum_hessian":[9.1E2,5.38E2,3.72E2,5.2E2,1.8E1,3.47E2,2.5E1,4.67E2,5.3E1,6E0,1.2E1,3.44E2,3E0,2E0,2.3E1],"tree_param":{"num_deleted":"0","num_feature":"1","num_nodes":"15","size_leaf_vector":"1"}},{"base_weights":[-1.0800805E-4,-1.990249E-2,7.1272634E-2,-1.44453505E-2,-2.0854293E-1,8.1506565E-2,-1.5269616E-1,-1.0686879E-3,1.16592515E-2,-3.1041956E-2,-6.412059E-3,3.0168996E-3,4.2633813E-2,-1.1207323E-2,1.0472655E-2],"categories":[],"categories_nodes":[],"categories_segments":[],"categories_sizes":[],"default_left":[0,0,0,0,0,0,0,0,0,0,0,0,0,0,0],"id":69,"left_children":[1,3,5,7,9,11,13,-1,-1,-1,-1,-1,-1,-1,-1],"loss_changes":[1.2886095E0,7.320056E-1,4.662776E-1,1.1973845E0,5.825449E-1,3.050218E0,2.798292E-1,0E0,0E0,0E0,0E0,0E0,0E0,0E0,0E0],"parents":[2147483647,0,0,1,1,2,2,3,3,4,4,5,5,6,6],"right_children":[2,4,6,8,10,12,14,-1,-1,-1,-1,-1,-1,-1,-1],"split_conditions":[7E0,6.6E0,1.18E1,6.5E0,6.7E0,1E1,1.46E1,-1.0686879E-3,1.16592515E-2,-3.1041956E-2,-6.412059E-3,3.0168996E-3,4.2633813E-2,-1.1207323E-2,1.0472655E-2],"split_indices":[0,0,0,0,0,0,0,0,0,0,0,0,0,0,0],"split_type":[0,0,0,0,0,0,0,0,0,0,0,0,0,0,0],"sum_hessian":[9.1E2,7.13E2,1.97E2,6.94E2,1.9E1,1.89E2,8E0,6.76E2,1.8E1,2E0,1.7E1,1.85E2,4E0,7E0,1E0],"tree_param":{"num_deleted":"0","num_feature":"1","num_nodes":"15","size_leaf_vector":"1"}},{"base_weights":[-8.281642E-5,-4.0304933E-2,3.2333985E-2,-3.6392245E-2,-8.303244E-3,2.1278484E-2,1.2823519E-1,-2.169221E-3,3.944441E-3,1.5704887E-3,-1.2901435E-2,9.657339E-3,-6.563339E-3],"categories":[],"categories_nodes":[],"categories_segments":[],"categories_sizes":[],"default_left":[0,0,0,0,0,0,0,0,0,0,0,0,0],"id":70,"left_children":[1,3,5,7,-1,9,11,-1,-1,-1,-1,-1,-1],"loss_changes":[1.189131E0,1.9422466E-1,5.326905E-1,3.226244E-1,0E0,1.2928076E0,9.012774E-1,0E0,0E0,0E0,0E0,0E0,0E0],"parents":[2147483647,0,0,1,1,2,2,3,3,5,5,6,6],"right_children":[2,4,6,8,-1,10,12,-1,-1,-1,-1,-1,-1],"split_conditions":[3.6E0,3.5E0,8.3E0,3.2E0,-8.303244E-3,8.1E0,1.13E1,-2.169221E-3,3.944441E-3,1.5704887E-3,-1.2901435E-2,9.657339E-3,-6.563339E-3],"split_indices":[0,0,0,0,0,0,0,0,0,0,0,0,0],"split_type":[0,0,0,0,0,0,0,0,0,0,0,0,0],"sum_hessian":[9.1E2,4.06E2,5.04E2,3.95E2,1.1E1,4.53E2,5.1E1,3.73E2,2.2E1,4.38E2,1.5E1,4.1E1,1E1],"tree_param":{"num_deleted":"0","num_feature":"1","num_nodes":"13","size_leaf_vector":"1"}},{"base_weights":[-9.48699E-5,-1.664784E-2,7.374978E-2,-4.619516E-2,4.39876E-3,1.8098898E-1,3.1485386E-2,-4.464568E-3,-1.9831818E-3,4.473969E-3,-1.9746688E-4,1.9971314E-3,2.3961252E-2,-8.364442E-3,4.7980417E-3],"categories":[],"categories_nodes":[],"categories_segments":[],"categories_sizes":[],"default_left":[0,0,0,0,0,0,0,0,0,0,0,0,0,0,0],"id":71,"left_children":[1,3,5,7,9,11,13,-1,-1,-1,-1,-1,-1,-1,-1],"loss_changes":[1.114787E0,4.634968E-1,7.5121236E-1,8.371836E-2,3.100273E-1,1.9579183E0,1.5667958E0,0E0,0E0,0E0,0E0,0E0,0E0,0E0,0E0],"parents":[2147483647,0,0,1,1,2,2,3,3,4,4,5,5,6,6],"right_children":[2,4,6,8,10,12,14,-1,-1,-1,-1,-1,-1,-1,-1],"split_conditions":[7.2E0,2.8E0,7.5E0,1E0,3E0,7.4E0,7.7E0,-4.464568E-3,-1.9831818E-3,4.473969E-3,-1.9746688E-4,1.9971314E-3,2.3961252E-2,-8.364442E-3,4.7980417E-3],"split_indices":[0,0,0,0,0,0,0,0,0,0,0,0,0,0,0],"split_type":[0,0,0,0,0,0,0,0,0,0,0,0,0,0,0],"sum_hessian":[9.1E2,7.44E2,1.66E2,3.09E2,4.35E2,4.6E1,1.2E2,3.9E1,2.7E2,3.8E1,3.97E2,3.2E1,1.4E1,2.9E1,9.1E1],"tree_param":{"num_deleted":"0","num_feature":"1","num_nodes":"15","size_leaf_vector":"1"}},{"base_weights":[-6.795042E-5,-1.7623771E-2,6.3239746E-2,-1.2312971E-2,-2.0129292E-1,7.4190155E-2,-1.2966178E-1,-9.419092E-4,1.1041936E-2,-3.0052995E-2,-6.174107E-3,2.6199375E-3,7.0026375E-2,-9.182393E-3,1.0254974E-2],"categories":[],"categories_nodes":[],"categories_segments":[],"categories_sizes":[],"default_left":[0,0,0,0,0,0,0,0,0,0,0,0,0,0,0],"id":72,"left_children":[1,3,5,7,9,11,13,-1,-1,-1,-1,-1,-1,-1,-1],"loss_changes":[1.0136169E0,6.9397867E-1,4.2786503E-1,1.0615085E0,5.479034E-1,5.360333E0,2.3646294E-1,0E0,0E0,0E0,0E0,0E0,0E0,0E0,0E0],"parents":[2147483647,0,0,1,1,2,2,3,3,4,4,5,5,6,6],"right_children":[2,4,6,8,10,12,14,-1,-1,-1,-1,-1,-1,-1,-1],"split_conditions":[7E0,6.6E0,1.13E1,6.5E0,6.7E0,1E1,1.46E1,-9.419092E-4,1.1041936E-2,-3.0052995E-2,-6.174107E-3,2.6199375E-3,7.0026375E-2,-9.182393E-3,1.0254974E-2],"split_indices":[0,0,0,0,0,0,0,0,0,0,0,0,0,0,0],"split_type":[0,0,0,0,0,0,0,0,0,0,0,0,0,0,0],"sum_hessian":[9.1E2,7.13E2,1.97E2,6.94E2,1.9E1,1.87E2,1E1,6.76E2,1.8E1,2E0,1.7E1,1.85E2,2E0,9E0,1E0],"tree_param":{"num_deleted":"0","num_feature":"1","num_nodes":"15","size_leaf_vector":"1"}},{"base_weights":[-1.2292509E-5,-3.8825203E-2,2.6969196E-2,-2.8633324E-2,-1.6874923E-1,2.0199912E-2,1.54336E-1,-1.9972853E-3,7.944347E-3,-1.0368551E-2,-1.4388391E-3,1.1708509E-3,-4.059353E-2,3.641947E-2,2.611489E-3],"categories":[],"categories_nodes":[],"categories_segments":[],"categories_sizes":[],"default_left":[0,0,0,0,0,0,0,0,0,0,0,0,0,0,0],"id":73,"left_children":[1,3,5,7,9,11,13,-1,-1,-1,-1,-1,-1,-1,-1],"loss_changes":[9.550737E-1,4.904077E-1,4.607364E-1,7.4455935E-1,1.399942E-1,1.3895633E0,1.5445457E0,0E0,0E0,0E0,0E0,0E0,0E0,0E0,0E0],"parents":[2147483647,0,0,1,1,2,2,3,3,4,4,5,5,6,6],"right_children":[2,4,6,8,10,12,14,-1,-1,-1,-1,-1,-1,-1,-1],"split_conditions":[3.2E0,3E0,8.9E0,2.9E0,3.1E0,8.8E0,9.1E0,-1.9972853E-3,7.944347E-3,-1.0368551E-2,-1.4388391E-3,1.1708509E-3,-4.059353E-2,3.641947E-2,2.611489E-3],"split_indices":[0,0,0,0,0,0,0,0,0,0,0,0,0,0,0],"split_type":[0,0,0,0,0,0,0,0,0,0,0,0,0,0,0],"sum_hessian":[9.1E2,3.73E2,5.37E2,3.47E2,2.6E1,5.11E2,2.6E1,3.28E2,1.9E1,2E1,6E0,5.1E2,1E0,3E0,2.3E1],"tree_param":{"num_deleted":"0","num_feature":"1","num_nodes":"15","size_leaf_vector":"1"}},{"base_weights":[-1.8551127E-5,-1.4734349E-2,6.562988E-2,-3.689962E-2,7.5896964E-3,1.6878155E-1,2.5020307E-2,-1.3592289E-3,-8.037453E-3,9.355984E-4,-3.1391045E-3,1.7164968E-3,2.266615E-2,-8.143385E-3,4.3008085E-3],"categories":[],"categories_nodes":[],"categories_segments":[],"categories_sizes":[],"default_left":[0,0,0,0,0,0,0,0,0,0,0,0,0,0,0],"id":74,"left_children":[1,3,5,7,9,11,13,-1,-1,-1,-1,-1,-1,-1,-1],"loss_changes":[8.810559E-1,3.6891988E-1,6.953309E-1,4.4562763E-1,2.9233697E-1,1.7825193E0,1.4007165E0,0E0,0E0,0E0,0E0,0E0,0E0,0E0,0E0],"parents":[2147483647,0,0,1,1,2,2,3,3,4,4,5,5,6,6],"right_children":[2,4,6,8,10,12,14,-1,-1,-1,-1,-1,-1,-1,-1],"split_conditions":[7.2E0,3.2E0,7.5E0,3E0,6.6E0,7.4E0,7.7E0,-1.3592289E-3,-8.037453E-3,9.355984E-4,-3.1391045E-3,1.7164968E-3,2.266615E-2,-8.143385E-3,4.3008085E-3],"split_indices":[0,0,0,0,0,0,0,0,0,0,0,0,0,0,0],"split_type":[0,0,0,0,0,0,0,0,0,0,0,0,0,0,0],"sum_hessian":[9.1E2,7.44E2,1.66E2,3.73E2,3.71E2,4.6E1,1.2E2,3.47E2,2.6E1,3.21E2,5E1,3.2E1,1.4E1,2.9E1,9.1E1],"tree_param":{"num_deleted":"0","num_feature":"1","num_nodes":"15","size_leaf_vector":"1"}},{"base_weights":[-7.797953E-6,-2.2790123E-2,3.9232228E-2,-1.75092E-2,-2.9292583E-1,3.193415E-2,1.9279566E-1,-1.2082278E-3,9.96163E-3,-8.155794E-3,-2.0803731E-2,1.9308114E-3,-8.987008E-3,4.3149497E-2,-6.4682486E-3],"categories":[],"categories_nodes":[],"categories_segments":[],"categories_sizes":[],"default_left":[0,0,0,0,0,0,0,0,0,0,0,0,0,0,0],"id":75,"left_children":[1,3,5,7,9,11,13,-1,-1,-1,-1,-1,-1,-1,-1],"loss_changes":[8.15309E-1,8.179995E-1,3.692838E-1,8.227085E-1,1.0797691E-1,4.6097112E-1,3.3502936E0,0E0,0E0,0E0,0E0,0E0,0E0,0E0,0E0],"parents":[2147483647,0,0,1,1,2,2,3,3,4,4,5,5,6,6],"right_children":[2,4,6,8,10,12,14,-1,-1,-1,-1,-1,-1,-1,-1],"split_conditions":[5.7E0,5.5E0,9.5E0,5.2E0,5.6E0,9.1E0,1.13E1,-1.2082278E-3,9.96163E-3,-8.155794E-3,-2.0803731E-2,1.9308114E-3,-8.987008E-3,4.3149497E-2,-6.4682486E-3],"split_indices":[0,0,0,0,0,0,0,0,0,0,0,0,0,0,0],"split_type":[0,0,0,0,0,0,0,0,0,0,0,0,0,0,0],"sum_hessian":[9.1E2,5.76E2,3.34E2,5.66E2,1E1,3.2E2,1.4E1,5.5E2,1.6E1,6E0,4E0,3.11E2,9E0,4E0,1E1],"tree_param":{"num_deleted":"0","num_feature":"1","num_nodes":"15","size_leaf_vector":"1"}},{"base_weights":[2.9681119E-6,-1.5189785E-2,5.478894E-2,-1.1717793E-2,-1.4293025E-2,6.492841E-2,-1.234847E-1,-1.9208667E-3,4.5801155E-4,2.2164343E-3,6.602344E-2,-8.789159E-3,9.987503E-3],"categories":[],"categories_nodes":[],"categories_segments":[],"categories_sizes":[],"default_left":[0,0,0,0,0,0,0,0,0,0,0,0,0],"id":76,"left_children":[1,3,5,7,-1,9,11,-1,-1,-1,-1,-1,-1],"loss_changes":[7.591028E-1,6.6764367E-1,3.6592263E-1,3.9390004E-1,0E0,4.803858E0,2.2106428E-1,0E0,0E0,0E0,0E0,0E0,0E0],"parents":[2147483647,0,0,1,1,2,2,3,3,5,5,6,6],"right_children":[2,4,6,8,-1,10,12,-1,-1,-1,-1,-1,-1],"split_conditions":[7E0,6.9E0,1.13E1,2.8E0,-1.4293025E-2,1E1,1.46E1,-1.9208667E-3,4.5801155E-4,2.2164343E-3,6.602344E-2,-8.789159E-3,9.987503E-3],"split_indices":[0,0,0,0,0,0,0,0,0,0,0,0,0],"split_type":[0,0,0,0,0,0,0,0,0,0,0,0,0],"sum_hessian":[9.1E2,7.13E2,1.97E2,7.05E2,8E0,1.87E2,1E1,3.09E2,3.96E2,1.85E2,2E0,9E0,1E0],"tree_param":{"num_deleted":"0","num_feature":"1","num_nodes":"13","size_leaf_vector":"1"}},{"base_weights":[6.176787E-5,-1.4452359E-2,5.2400276E-2,-9.450659E-3,-1.875388E-1,5.9456088E-2,-1.8329509E-1,-7.7433366E-4,1.0305973E-2,-2.9065251E-2,-5.5746143E-3,2.106213E-3,2.2749452E-2,-1.4892831E-2,9.737814E-3],"categories":[],"categories_nodes":[],"categories_segments":[],"categories_sizes":[],"default_left":[0,0,0,0,0,0,0,0,0,0,0,0,0,0,0],"id":77,"left_children":[1,3,5,7,9,11,13,-1,-1,-1,-1,-1,-1,-1,-1],"loss_changes":[6.9279635E-1,6.163564E-1,3.4017646E-1,9.0751505E-1,5.3408E-1,1.3039086E0,3.1787032E-1,0E0,0E0,0E0,0E0,0E0,0E0,0E0,0E0],"parents":[2147483647,0,0,1,1,2,2,3,3,4,4,5,5,6,6],"right_children":[2,4,6,8,10,12,14,-1,-1,-1,-1,-1,-1,-1,-1],"split_conditions":[7E0,6.6E0,1.36E1,6.5E0,6.7E0,1E1,1.46E1,-7.7433366E-4,1.0305973E-2,-2.9065251E-2,-5.5746143E-3,2.106213E-3,2.2749452E-2,-1.4892831E-2,9.737814E-3],"split_indices":[0,0,0,0,0,0,0,0,0,0,0,0,0,0,0],"split_type":[0,0,0,0,0,0,0,0,0,0,0,0,0,0,0],"sum_hessian":[9.1E2,7.13E2,1.97E2,6.94E2,1.9E1,1.92E2,5E0,6.76E2,1.8E1,2E0,1.7E1,1.85E2,7E0,4E0,1E0],"tree_param":{"num_deleted":"0","num_feature":"1","num_nodes":"15","size_leaf_vector":"1"}},{"base_weights":[5.2773386E-5,-2.9413959E-2,2.3801105E-2,-2.5444876E-2,-7.897127E-3,1.9449957E-2,1.8697919E-1,-1.5796926E-3,3.7824556E-3,1.158916E-3,-6.596339E-3,6.3064344E-2,-6.1505972E-3],"categories":[],"categories_nodes":[],"categories_segments":[],"categories_sizes":[],"default_left":[0,0,0,0,0,0,0,0,0,0,0,0,0],"id":78,"left_children":[1,3,5,7,-1,9,11,-1,-1,-1,-1,-1,-1],"loss_changes":[6.382049E-1,2.0360845E-1,3.549193E-1,2.4855337E-1,0E0,2.8130084E-1,4.4844894E0,0E0,0E0,0E0,0E0,0E0,0E0],"parents":[2147483647,0,0,1,1,2,2,3,3,5,5,6,6],"right_children":[2,4,6,8,-1,10,12,-1,-1,-1,-1,-1,-1],"split_conditions":[3.6E0,3.5E0,1E1,3.2E0,-7.897127E-3,9.1E0,1.13E1,-1.5796926E-3,3.7824556E-3,1.158916E-3,-6.596339E-3,6.3064344E-2,-6.1505972E-3],"split_indices":[0,0,0,0,0,0,0,0,0,0,0,0,0],"split_type":[0,0,0,0,0,0,0,0,0,0,0,0,0],"sum_hessian":[9.1E2,4.06E2,5.04E2,3.95E2,1.1E1,4.92E2,1.2E1,3.73E2,2.2E1,4.81E2,1.1E1,2E0,1E1],"tree_param":{"num_deleted":"0","num_feature":"1","num_nodes":"13","size_leaf_vector":"1"}},{"base_weights":[1.0037087E-4,-1.2137396E-2,5.46934E-2,-4.522705E-2,-1.2821765E-3,1.5360667E-1,1.5820537E-2,-4.3172273E-3,-1.9109494E-3,2.2955354E-4,-3.0109917E-3,1.2738878E-3,2.1262491E-2,-8.108041E-3,3.684299E-3],"categories":[],"categories_nodes":[],"categories_segments":[],"categories_sizes":[],"default_left":[0,0,0,0,0,0,0,0,0,0,0,0,0,0,0],"id":79,"left_children":[1,3,5,7,9,11,13,-1,-1,-1,-1,-1,-1,-1,-1],"loss_changes":[6.093E-1,2.6754263E-1,6.396919E-1,4.9720317E-2,1.948158E-1,1.6250165E0,1.2581245E0,0E0,0E0,0E0,0E0,0E0,0E0,0E0,0E0],"parents":[2147483647,0,0,1,1,2,2,3,3,4,4,5,5,6,6],"right_children":[2,4,6,8,10,12,14,-1,-1,-1,-1,-1,-1,-1,-1],"split_conditions":[7.2E0,1.8E0,7.5E0,8E-1,6.6E0,7.4E0,7.7E0,-4.3172273E-3,-1.9109494E-3,2.2955354E-4,-3.0109917E-3,1.2738878E-3,2.1262491E-2,-8.108041E-3,3.684299E-3],"split_indices":[0,0,0,0,0,0,0,0,0,0,0,0,0,0,0],"split_type":[0,0,0,0,0,0,0,0,0,0,0,0,0,0,0],"sum_hessian":[9.1E2,7.44E2,1.66E2,1.83E2,5.61E2,4.6E1,1.2E2,2.5E1,1.58E2,5.11E2,5E1,3.2E1,1.4E1,2.9E1,9.1E1],"tree_param":{"num_deleted":"0","num_feature":"1","num_nodes":"15","size_leaf_vector":"1"}},{"base_weights":[1.0531786E-4,-1.8855866E-2,3.2763522E-2,-1.3719716E-2,-2.8188694E-1,1.1488633E-1,2.1555157E-2,-9.972317E-4,9.442395E-3,-7.852209E-3,-2.001447E-2,3.976727E-4,1.1632835E-2,-1.20316055E-2,1.5307748E-3],"categories":[],"categories_nodes":[],"categories_segments":[],"categories_sizes":[],"default_left":[0,0,0,0,0,0,0,0,0,0,0,0,0,0,0],"id":80,"left_children":[1,3,5,7,9,11,13,-1,-1,-1,-1,-1,-1,-1,-1],"loss_changes":[5.6474376E-1,7.756406E-1,3.0587846E-1,7.187345E-1,9.973544E-2,5.0189054E-1,7.105167E-1,0E0,0E0,0E0,0E0,0E0,0E0,0E0,0E0],"parents":[2147483647,0,0,1,1,2,2,3,3,4,4,5,5,6,6],"right_children":[2,4,6,8,10,12,14,-1,-1,-1,-1,-1,-1,-1,-1],"split_conditions":[5.7E0,5.5E0,6.1E0,5.2E0,5.6E0,6E0,6.2E0,-9.972317E-4,9.442395E-3,-7.852209E-3,-2.001447E-2,3.976727E-4,1.1632835E-2,-1.20316055E-2,1.5307748E-3],"split_indices":[0,0,0,0,0,0,0,0,0,0,0,0,0,0,0],"split_type":[0,0,0,0,0,0,0,0,0,0,0,0,0,0,0],"sum_hessian":[9.1E2,5.76E2,3.34E2,5.66E2,1E1,3.9E1,2.95E2,5.5E2,1.6E1,6E0,4E0,2.1E1,1.8E1,9E0,2.86E2],"tree_param":{"num_deleted":"0","num_feature":"1","num_nodes":"15","size_leaf_vector":"1"}},{"base_weights":[8.038964E-5,-1.2552427E-2,4.5634687E-2,-9.279318E-3,-1.3395744E-2,5.520982E-2,-1.2216165E-1,-7.319904E-4,3.489282E-3,1.8097165E-3,6.0788352E-2,-8.622441E-3,9.5177535E-3],"categories":[],"categories_nodes":[],"categories_segments":[],"categories_sizes":[],"default_left":[0,0,0,0,0,0,0,0,0,0,0,0,0],"id":81,"left_children":[1,3,5,7,-1,9,11,-1,-1,-1,-1,-1,-1],"loss_changes":[5.248343E-1,5.942959E-1,3.2486564E-1,3.0024344E-1,0E0,4.1048865E0,2.0569794E-1,0E0,0E0,0E0,0E0,0E0,0E0],"parents":[2147483647,0,0,1,1,2,2,3,3,5,5,6,6],"right_children":[2,4,6,8,-1,10,12,-1,-1,-1,-1,-1,-1],"split_conditions":[7E0,6.9E0,1.13E1,6.4E0,-1.3395744E-2,1E1,1.46E1,-7.319904E-4,3.489282E-3,1.8097165E-3,6.0788352E-2,-8.622441E-3,9.5177535E-3],"split_indices":[0,0,0,0,0,0,0,0,0,0,0,0,0],"split_type":[0,0,0,0,0,0,0,0,0,0,0,0,0],"sum_hessian":[9.1E2,7.13E2,1.97E2,7.05E2,8E0,1.87E2,1E1,6.61E2,4.4E1,1.85E2,2E0,9E0,1E0],"tree_param":{"num_deleted":"0","num_feature":"1","num_nodes":"13","size_leaf_vector":"1"}},{"base_weights":[1.3435834E-4,-1.1939725E-2,4.3673556E-2,-7.1970853E-3,-1.7614949E-1,9.315212E-2,1.1417345E-2,-6.364388E-4,9.514229E-3,-2.8202018E-2,-5.0857463E-3,9.6215785E-4,2.0114345E-2,-7.877617E-3,3.3196025E-3],"categories":[],"categories_nodes":[],"categories_segments":[],"categories_sizes":[],"default_left":[0,0,0,0,0,0,0,0,0,0,0,0,0,0,0],"id":82,"left_children":[1,3,5,7,9,11,13,-1,-1,-1,-1,-1,-1,-1,-1],"loss_changes":[4.7943044E-1,5.5478674E-1,3.1494266E-1,7.616453E-1,5.200784E-1,1.7743895E0,1.1344362E0,0E0,0E0,0E0,0E0,0E0,0E0,0E0,0E0],"parents":[2147483647,0,0,1,1,2,2,3,3,4,4,5,5,6,6],"right_children":[2,4,6,8,10,12,14,-1,-1,-1,-1,-1,-1,-1,-1],"split_conditions":[7E0,6.6E0,7.5E0,6.5E0,6.7E0,7.4E0,7.7E0,-6.364388E-4,9.514229E-3,-2.8202018E-2,-5.0857463E-3,9.6215785E-4,2.0114345E-2,-7.877617E-3,3.3196025E-3],"split_indices":[0,0,0,0,0,0,0,0,0,0,0,0,0,0,0],"split_type":[0,0,0,0,0,0,0,0,0,0,0,0,0,0,0],"sum_hessian":[9.1E2,7.13E2,1.97E2,6.94E2,1.9E1,7.7E1,1.2E2,6.76E2,1.8E1,2E0,1.7E1,6.3E1,1.4E1,2.9E1,9.1E1],"tree_param":{"num_deleted":"0","num_feature":"1","num_nodes":"15","size_leaf_vector":"1"}},{"base_weights":[1.1894795E-4,-2.6679814E-2,1.8748349E-2,-1.7193232E-2,-1.4796315E-1,1.3249294E-2,1.2652785E-1,-1.3883633E-3,7.880463E-3,-9.24254E-3,-8.081317E-4,9.1696606E-4,-1.7865345E-2,4.506461E-2,1.2205158E-3],"categories":[],"categories_nodes":[],"categories_segments":[],"categories_sizes":[],"default_left":[0,0,0,0,0,0,0,0,0,0,0,0,0,0,0],"id":83,"left_children":[1,3,5,7,9,11,13,-1,-1,-1,-1,-1,-1,-1,-1],"loss_changes":[4.553123E-1,4.27767E-1,3.1718838E-1,6.476083E-1,1.2828124E-1,9.741432E-1,2.0350418E0,0E0,0E0,0E0,0E0,0E0,0E0,0E0,0E0],"parents":[2147483647,0,0,1,1,2,2,3,3,4,4,5,5,6,6],"right_children":[2,4,6,8,10,12,14,-1,-1,-1,-1,-1,-1,-1,-1],"split_conditions":[3.2E0,3E0,9E0,2.9E0,3.1E0,8.6E0,9.1E0,-1.3883633E-3,7.880463E-3,-9.24254E-3,-8.081317E-4,9.1696606E-4,-1.7865345E-2,4.506461E-2,1.2205158E-3],"split_indices":[0,0,0,0,0,0,0,0,0,0,0,0,0,0,0],"split_type":[0,0,0,0,0,0,0,0,0,0,0,0,0,0,0],"sum_hessian":[9.1E2,3.73E2,5.37E2,3.47E2,2.6E1,5.12E2,2.5E1,3.28E2,1.9E1,2E1,6E0,5.06E2,6E0,2E0,2.3E1],"tree_param":{"num_deleted":"0","num_feature":"1","num_nodes":"15","size_leaf_vector":"1"}},{"base_weights":[1.4129681E-4,-1.0012553E-2,4.5437567E-2,-3.9265893E-2,-4.1713112E-4,1.3559209E-1,1.0043349E-2,-3.9291857E-3,-1.6294805E-3,2.6200348E-4,-2.8601408E-3,9.590366E-4,1.913288E-2,-7.5411866E-3,3.1195418E-3],"categories":[],"categories_nodes":[],"categories_segments":[],"categories_sizes":[],"default_left":[0,0,0,0,0,0,0,0,0,0,0,0,0,0,0],"id":84,"left_children":[1,3,5,7,9,11,13,-1,-1,-1,-1,-1,-1,-1,-1],"loss_changes":[4.1945255E-1,2.0910373E-1,5.315267E-1,4.57384E-2,1.8084112E-1,1.3444383E0,1.0283494E0,0E0,0E0,0E0,0E0,0E0,0E0,0E0,0E0],"parents":[2147483647,0,0,1,1,2,2,3,3,4,4,5,5,6,6],"right_children":[2,4,6,8,10,12,14,-1,-1,-1,-1,-1,-1,-1,-1],"split_conditions":[7.2E0,1.8E0,7.5E0,8E-1,6.6E0,7.4E0,7.7E0,-3.9291857E-3,-1.6294805E-3,2.6200348E-4,-2.8601408E-3,9.590366E-4,1.913288E-2,-7.5411866E-3,3.1195418E-3],"split_indices":[0,0,0,0,0,0,0,0,0,0,0,0,0,0,0],"split_type":[0,0,0,0,0,0,0,0,0,0,0,0,0,0,0],"sum_hessian":[9.1E2,7.44E2,1.66E2,1.83E2,5.61E2,4.6E1,1.2E2,2.5E1,1.58E2,5.11E2,5E1,3.2E1,1.4E1,2.9E1,9.1E1],"tree_param":{"num_deleted":"0","num_feature":"1","num_nodes":"15","size_leaf_vector":"1"}},{"base_weights":[1.4247563E-4,-1.2576049E-2,3.382056E-2,-7.5000827E-3,-7.883604E-2,4.0864285E-2,-1.2293532E-1,-7.386742E-4,1.1090769E-2,-1.1481667E-2,-1.8538953E-3,1.322904E-3,5.8506753E-2,-8.579108E-3,9.088325E-3],"categories":[],"categories_nodes":[],"categories_segments":[],"categories_sizes":[],"default_left":[0,0,0,0,0,0,0,0,0,0,0,0,0,0,0],"id":85,"left_children":[1,3,5,7,9,11,13,-1,-1,-1,-1,-1,-1,-1,-1],"loss_changes":[3.90639E-1,2.2206149E-1,2.8105998E-1,1.0307053E0,2.8744534E-1,3.8734818E0,1.9423844E-1,0E0,0E0,0E0,0E0,0E0,0E0,0E0,0E0],"parents":[2147483647,0,0,1,1,2,2,3,3,4,4,5,5,6,6],"right_children":[2,4,6,8,10,12,14,-1,-1,-1,-1,-1,-1,-1,-1],"split_conditions":[6.4E0,6.1E0,1.13E1,6E0,6.2E0,1E1,1.46E1,-7.386742E-4,1.1090769E-2,-1.1481667E-2,-1.8538953E-3,1.322904E-3,5.8506753E-2,-8.579108E-3,9.088325E-3],"split_indices":[0,0,0,0,0,0,0,0,0,0,0,0,0,0,0],"split_type":[0,0,0,0,0,0,0,0,0,0,0,0,0,0,0],"sum_hessian":[9.1E2,6.61E2,2.49E2,6.15E2,4.6E1,2.39E2,1E1,5.97E2,1.8E1,9E0,3.7E1,2.37E2,2E0,9E0,1E0],"tree_param":{"num_deleted":"0","num_feature":"1","num_nodes":"15","size_leaf_vector":"1"}},{"base_weights":[1.9828134E-4,-4.691888E-3,8.275196E-2,4.7718905E-4,-2.6134944E-1,1.837411E-2,1.298876E-2,-3.091344E-4,1.3104625E-2,-2.2927148E-2,-3.8729836E-3,-7.904982E-3,5.6946706E-3],"categories":[],"categories_nodes":[],"categories_segments":[],"categories_sizes":[],"default_left":[0,0,0,0,0,0,0,0,0,0,0,0,0],"id":86,"left_children":[1,3,5,7,9,-1,11,-1,-1,-1,-1,-1,-1],"loss_changes":[3.6816025E-1,1.1423984E0,1.008275E0,1.4738857E0,5.809332E-1,0E0,7.430783E-1,0E0,0E0,0E0,0E0,0E0,0E0],"parents":[2147483647,0,0,1,1,2,2,3,3,4,4,6,6],"right_children":[2,4,6,8,10,-1,12,-1,-1,-1,-1,-1,-1],"split_conditions":[8.4E0,8.1E0,8.5E0,7.8E0,8.2E0,1.837411E-2,8.9E0,-3.091344E-4,1.3104625E-2,-2.2927148E-2,-3.8729836E-3,-7.904982E-3,5.6946706E-3],"split_indices":[0,0,0,0,0,0,0,0,0,0,0,0,0],"split_type":[0,0,0,0,0,0,0,0,0,0,0,0,0],"sum_hessian":[9.1E2,8.6E2,5E1,8.44E2,1.6E1,9E0,4.1E1,8.24E2,2E1,7E0,9E0,1.5E1,2.6E1],"tree_param":{"num_deleted":"0","num_feature":"1","num_nodes":"13","size_leaf_vector":"1"}},{"base_weights":[1.9076384E-4,-2.3492452E-2,1.6654206E-2,-1.437155E-2,-1.4018065E-1,1.3154131E-2,1.569915E-1,-1.2186451E-3,7.5434633E-3,-8.765005E-3,-7.398248E-4,8.415881E-4,-7.2886846E-3,5.636669E-2,-6.0959635E-3],"categories":[],"categories_nodes":[],"categories_segments":[],"categories_sizes":[],"default_left":[0,0,0,0,0,0,0,0,0,0,0,0,0,0,0],"id":87,"left_children":[1,3,5,7,9,11,13,-1,-1,-1,-1,-1,-1,-1,-1],"loss_changes":[3.5559675E-1,3.9603415E-1,2.6219565E-1,5.787929E-1,1.1629856E-1,3.0988896E-1,3.6557498E0,0E0,0E0,0E0,0E0,0E0,0E0,0E0,0E0],"parents":[2147483647,0,0,1,1,2,2,3,3,4,4,5,5,6,6],"right_children":[2,4,6,8,10,12,14,-1,-1,-1,-1,-1,-1,-1,-1],"split_conditions":[3.2E0,3E0,1E1,2.9E0,3.1E0,9.1E0,1.13E1,-1.2186451E-3,7.5434633E-3,-8.765005E-3,-7.398248E-4,8.415881E-4,-7.2886846E-3,5.636669E-2,-6.0959635E-3],"split_indices":[0,0,0,0,0,0,0,0,0,0,0,0,0,0,0],"split_type":[0,0,0,0,0,0,0,0,0,0,0,0,0,0,0],"sum_hessian":[9.1E2,3.73E2,5.37E2,3.47E2,2.6E1,5.25E2,1.2E1,3.28E2,1.9E1,2E1,6E0,5.14E2,1.1E1,2E0,1E1],"tree_param":{"num_deleted":"0","num_feature":"1","num_nodes":"15","size_leaf_vector":"1"}},{"base_weights":[2.2581738E-4,-4.4430313E-3,7.904254E-2,5.155159E-4,-2.5065064E-1,1.7509408E-2,1.2602096E-2,-2.9026702E-4,1.2440516E-2,-2.196091E-2,-3.7365772E-3,-7.5738854E-3,5.468392E-3],"categories":[],"categories_nodes":[],"categories_segments":[],"categories_sizes":[],"default_left":[0,0,0,0,0,0,0,0,0,0,0,0,0],"id":88,"left_children":[1,3,5,7,9,-1,11,-1,-1,-1,-1,-1,-1],"loss_changes":[3.35584E-1,1.0512657E0,9.143537E-1,1.3276175E0,5.3111124E-1,0E0,6.834135E-1,0E0,0E0,0E0,0E0,0E0,0E0],"parents":[2147483647,0,0,1,1,2,2,3,3,4,4,6,6],"right_children":[2,4,6,8,10,-1,12,-1,-1,-1,-1,-1,-1],"split_conditions":[8.4E0,8.1E0,8.5E0,7.8E0,8.2E0,1.7509408E-2,8.9E0,